0.12946214	0.6804432	1.3704046	-0.3301252	0.98100543	0.11119991	-0.4901865	1.0671537	-0.30333316	0.12097394	0.73751944	-0.1492755	0.12294463	-0.22610494	-0.3626135	1.6217184
-1.0908117	0.5134515	0.8911741	0.47042182	0.6438177	0.22147734	-0.026438415	1.045413	0.09012679	-0.36796284	-0.74260587	0.18372977	-0.2718501	0.25456217	-0.58694494	0.7115137
0.11833365	0.45408142	0.73252404	0.47617114	-0.8543675	0.50127035	0.2868098	1.298221	-0.20785795	-0.51989037	0.20021239	0.27643922	-0.21963637	-0.32255283	-0.18313372	0.1914879
0.20008135	-0.060714345	0.012068378	-0.29821706	-0.048765525	-0.18479224	-0.28416678	0.15741275	0.13140908	0.3138349	0.0674887	-0.06468045	0.10982996	-0.093759455	-0.1463986	0.29885483
0.5900644	-0.2397939	-0.035411842	0.38536248	0.29745415	0.08270946	0.027695604	0.20915416	-0.43901622	0.018504433	0.44074234	-0.5133264	-0.5376912	-0.7335538	0.35734338	-0.18361904
0.46496025	0.9394197	1.0860857	0.44276747	-1.5240314	0.93444014	0.70608723	1.1336607	-0.35194817	-0.73756707	0.8464623	0.657053	-0.014660328	-0.31640872	0.051722467	-0.15765208
-0.1666967	0.26823947	0.34727526	0.06368877	0.21014233	0.2738695	0.094892286	0.08379638	-0.2175786	-0.21435803	0.20361407	0.057072103	-0.0028013843	0.0434488	0.014644954	0.10125117
1.0368159	-0.2302277	-0.47578642	-0.70142436	-0.09828318	-0.20842923	-0.2647401	-1.0496168	-0.329102	0.5728491	1.1879913	-0.30357775	0.5497076	-0.28387058	0.65068734	-0.24902894
0.21400504	0.20024695	0.018777583	-0.4918001	-0.1298863	-0.06220547	-0.11112542	-0.35812297	-0.058173798	0.24264309	0.43400502	0.11771041	0.40737855	0.108605936	0.09900588	0.1576083
-0.48770097	0.68090284	0.5263517	-1.2477762	-0.31627607	-0.16544797	-0.18909791	-0.42252794	0.48383746	0.25723636	0.0662164	0.760019	1.2620327	0.99155384	-0.3445115	0.6076139
-0.17013362	0.34343645	0.44337806	-0.12823309	0.0052935476	0.1920454	0.11574496	0.16348478	-0.034463186	-0.19344302	0.08421493	0.15478694	0.17552605	0.20706059	-0.097145036	0.22008061
-0.20851704	0.21161367	0.1600586	-0.005390928	0.709659	0.1758639	0.086664386	-0.434933	-0.3323736	-0.08088016	0.3405688	-0.06448008	0.024489447	0.040177878	0.29086742	-0.08027282
1.4337559	-0.93532944	-0.9003168	-0.59193313	0.6487328	-0.73749596	-0.7654606	-0.6713682	-0.08353916	0.91792715	0.7107723	-1.0937579	-0.030916383	-0.9076637	0.6537596	-0.037174113
-0.0710683	-0.13155961	0.025016073	-0.06790803	0.24962719	-0.32298347	-0.3549401	0.46053427	0.2379279	0.23944104	-0.34599024	-0.14130121	-0.028480541	0.03740653	-0.2901268	0.43257678
-0.40457264	-0.41986153	-0.299961	0.49400595	0.9328637	-0.40134552	-0.42209297	0.9111989	0.38948646	0.17459159	-0.9656127	-0.5097707	-0.7327124	-0.30249986	-0.64303535	0.694116
0.09118754	-0.30998173	-0.14401972	0.14728947	1.0035534	-0.20849064	-0.26540732	-0.0031318748	-0.19667238	0.16128938	-0.011083856	-0.52724606	-0.46298265	-0.4287378	0.16195396	0.13631675
0.8650483	-0.20036	0.18733567	0.5033049	-1.6847262	0.48351744	0.42511448	2.2630148	0.08229508	-0.6158833	0.10564095	0.17457433	-0.32858688	-0.58028233	-0.20610017	0.0604107
0.090068065	-0.42734888	-0.34759805	-0.63321596	-0.043783665	-0.8129732	-0.8186006	0.31827822	0.79450876	0.7970654	-0.63478976	-0.13092747	0.2636398	0.18202533	-0.5739126	0.8241881
-0.13451877	-0.047230735	0.13905194	0.30024892	0.26208195	0.09217132	0.037437342	0.546658	-0.05988457	-0.1544075	-0.28106013	-0.23933819	-0.2990187	-0.19674617	-0.101281345	0.15972531
0.05685443	0.057433773	0.15851142	0.13047305	0.45878777	0.15814464	0.117187925	-0.04928283	-0.3773353	-0.055071	0.31581113	-0.20263891	-0.22006848	-0.22067499	0.28225753	-0.17231318
0.4126438	-0.36538112	-0.26499465	-0.0871517	0.036301486	-0.28022933	-0.34502962	0.38035604	0.21435274	0.24919517	-0.23112625	-0.2369092	-0.14230348	-0.22865227	-0.22043358	0.3427238
0.57991207	0.46433187	0.50118273	0.47952604	-0.43310294	0.924204	0.85580075	0.084934	-0.80030024	-0.69050467	1.0477481	-0.025380502	-0.37777597	-0.5656423	0.63863313	-0.563771
-0.6273801	0.585553	0.6230433	-0.22267732	-0.31417212	0.181374	0.08358753	0.119249955	0.18597065	-0.22021386	-0.18172385	0.5757219	0.4158723	0.5562632	-0.29188713	0.25652692
-0.7874197	0.5842116	0.55412835	0.07869913	1.3936726	0.1652564	0.05655728	-0.86096627	-0.37603664	-0.06081945	0.17477788	0.004728663	0.13046569	0.3589888	0.4376306	0.42914903
-0.1556604	0.26882264	0.32399783	0.16788605	0.26961234	0.23893869	0.18193792	-0.09876715	-0.34326392	-0.15032126	0.24992752	-0.004806292	-0.13458015	-0.04375859	0.24360439	-0.13690132
0.045673434	-0.37172705	-0.23452419	0.13222599	0.47200108	-0.25322258	-0.26164266	0.3070875	0.19452807	0.17011385	-0.35183284	-0.3817628	-0.3555	-0.20190005	-0.27503157	0.33533162
0.44057837	0.031858563	0.020364404	-0.16229878	-0.19810295	0.0527288	-0.039962016	-0.044376682	-0.114645936	0.10952819	0.34069785	-0.058186315	0.05903529	-0.13697985	0.15764804	-0.003957861
0.29939532	-0.11208995	-0.0037210716	0.12660839	0.20905031	-0.026607975	-0.14654568	0.21651274	-0.1730893	0.1357066	0.2811977	-0.32192847	-0.2768294	-0.41645497	0.16646554	0.0075682965
-1.9732825	2.394151	1.9546639	0.47403738	2.252578	1.3658737	1.3270842	-2.428364	-1.7794746	-1.2278162	1.5288187	1.4842064	0.54925877	1.8435295	1.4670607	-0.31534213
-0.031031448	-0.024367645	0.07520123	0.31175384	0.23147231	0.07485429	0.06105283	0.50067997	-0.03935547	-0.13139392	-0.19813325	-0.19423136	-0.37679622	-0.17327139	-0.09450539	0.092575274
0.16062091	0.068255365	-0.023646396	-0.30620584	0.07056724	-0.11081647	-0.19156982	-0.26513323	-0.06094354	0.25253594	0.27682164	-0.017028617	0.24985285	0.009427865	0.13269193	0.045210555
-0.9308765	1.2480259	0.7057184	-0.2588215	1.933996	0.82204187	0.7978333	-2.2085686	-1.3952347	-0.61465114	1.8944504	0.4976294	0.5214162	1.1559597	1.5598313	-0.824776
1.0392534	-1.0724322	-1.197285	-1.023963	1.4289119	-1.2459055	-1.2524464	-0.42871258	0.76544225	1.4659734	-0.08044535	-1.15371	-0.08680955	-0.8186963	0.19883181	0.5587538
0.4030162	0.06359057	0.049266167	-0.1653431	-0.18388698	0.1829117	0.19758382	-0.2937366	-0.2519672	-0.014232499	0.5359219	-0.022245377	0.154453	-0.09687203	0.29253644	-0.20680632
0.06171123	-0.01770187	-0.07307632	-0.25174966	0.6675078	-0.119833246	-0.08597855	-0.51467097	-0.3016558	0.18380554	0.40814218	-0.16604993	0.14867215	-0.03887017	0.3893859	-0.11181411
0.054627173	0.31032237	0.22009714	-0.15598564	-0.7395103	0.2069181	0.16910726	0.22112566	0.08925228	-0.14297171	0.10405009	0.39018503	0.3670935	0.181163	-0.15593389	0.11882078
2.047031	-0.36416158	0.6541725	1.539761	0.12689967	1.2485377	1.114219	1.5283194	-1.2993492	-1.2654715	1.3017147	-1.39862	-1.5147351	-1.6711417	0.91138434	-0.992721
0.21979725	-0.24456124	-0.15779847	-0.11639018	0.13161923	-0.27201197	-0.29999116	0.10748608	0.077074744	0.26550165	0.107765466	-0.14837772	-0.11758928	-0.22385773	-0.010730435	0.18382911
-0.24522528	0.42936063	0.29838455	0.17030905	1.090213	0.3280343	0.26723	-0.5784752	-0.6343476	-0.22637127	0.64304185	-0.14136729	-0.2508834	-0.18906969	0.5805476	-0.3456032
0.18936402	-0.6029526	-0.38573277	0.059284635	0.4040626	-0.5804657	-0.6625082	0.7566394	0.50939673	0.47050443	-0.67394805	-0.441223	-0.41487372	-0.30212894	-0.5743889	0.63022935
0.16806781	-0.29153565	-0.2614405	-0.17053539	0.3121296	-0.2952252	-0.3456979	0.033288997	0.08757735	0.3341198	-0.110207506	-0.24692652	-0.045694686	-0.17113227	-0.08435884	0.25570735
-0.059758943	0.08177051	0.12245023	0.16127948	0.60369456	0.12057828	0.08197584	0.062949345	-0.23767549	-0.13157432	0.035169918	-0.15527253	-0.24350539	-0.15292437	0.08552682	0.12122453
0.13759151	-0.41847113	-0.3083921	0.21892262	0.24149767	-0.40259102	-0.41901952	0.6794893	0.28917742	0.27667364	-0.4583591	-0.35599592	-0.40837666	-0.3456699	-0.2967066	0.35264122
-0.24319483	-0.16203438	-0.052411847	-0.21340217	0.052132666	-0.44291034	-0.4849222	0.5189687	0.5775217	0.32354966	-0.7164649	0.0031488768	0.027917018	0.1549494	-0.62768936	0.6035903
-0.05767325	-0.16443118	-0.12749696	-0.11046711	0.38089153	-0.33435333	-0.3600941	0.13599592	0.25309244	0.2716316	-0.31869578	-0.13756445	-0.027226541	0.047887377	-0.25793812	0.43333465
0.8089291	-0.55555147	-0.59894085	-0.60949105	0.21443537	-0.6357326	-0.7219239	-0.32353133	0.24253784	0.75630003	0.3309504	-0.42939338	0.2444065	-0.34576556	0.17224362	0.19811775
0.31656283	-0.53486085	-0.38655683	0.0583952	0.43480766	-0.38515118	-0.36982566	0.32717675	0.14450245	0.25882986	-0.2627844	-0.5015789	-0.30011797	-0.4087774	-0.085822165	0.24954854
-0.21283342	0.43996778	0.32278547	-1.064897	-1.0753912	-0.40791622	-0.398198	0.31669232	0.8078109	0.32447338	-0.35788596	0.8346744	1.1008365	0.81558245	-0.61071444	0.68351424
-0.51879984	0.60812575	0.47424743	-1.1267034	-0.9610421	-0.3787652	-0.28336242	0.3136512	0.88500714	0.27152646	-0.58829564	0.8943925	1.1045408	0.92607766	-0.74937296	0.7603436
-0.5454314	0.58541137	0.5731961	-0.3816945	-0.880755	-0.06638614	-0.04714669	0.6116302	0.53776395	-0.037327524	-0.41734985	0.79544973	0.588907	0.5654088	-0.64300495	0.50978255
0.80593795	-0.26547387	-0.108343124	0.31633952	-0.24405888	0.17524467	0.16994916	0.24892202	-0.3375561	-0.07682175	0.4381287	-0.3768934	-0.45872262	-0.6205729	0.31101885	-0.31941786
0.35217363	-0.14818901	-0.0009616663	0.3667245	0.54109776	0.25852287	0.1544992	0.0028233954	-0.48429543	-0.1839488	0.38810745	-0.42569685	-0.46806607	-0.4848862	0.42090872	-0.19789343
0.15180144	-0.58846706	-0.40475446	-0.1402683	0.53856367	-0.602898	-0.60102	0.4032585	0.53099215	0.5990018	-0.598122	-0.5009306	-0.24734415	-0.29762453	-0.5301264	0.6219596
-0.07515019	-0.28325936	-0.2188737	-0.06815644	0.5372967	-0.30225387	-0.37276253	0.11873986	0.14069258	0.30997366	-0.25541237	-0.292055	-0.15102766	-0.14835206	-0.16072187	0.30140808
1.5645213	0.12116845	0.6641038	1.2846771	0.35123542	1.09282	1.0079209	0.6704087	-1.2693851	-0.99730307	1.2375306	-1.2674612	-1.314623	-1.3828318	0.9768388	-0.952651
0.102655336	-0.17751805	0.026589412	-0.10325681	-0.38859266	-0.30997515	-0.35987756	0.65136534	0.43912154	0.30719015	-0.3607803	0.0067525343	0.120743535	-0.03692052	-0.4396042	0.41894203
0.030181196	0.21947674	0.2241735	0.13355465	-0.3808179	0.16925871	0.19415092	0.17260337	-0.11394808	-0.18431577	0.044061717	0.15941617	0.050069712	-0.027039442	-0.02734193	-0.063067995
-0.4948863	0.53528684	0.40694806	-0.8198093	-0.08427945	-0.1364169	-0.12563217	-0.19344658	0.32750574	0.1648877	-0.056465674	0.5640916	0.83616245	0.8185091	-0.32949975	0.40998438
1.6134825	0.12976706	0.76673985	1.2811172	-0.13503031	1.1900355	1.0227219	1.2307472	-1.0909842	-1.1010787	1.0678145	-0.90861803	-1.245901	-1.3370585	0.76039505	-0.87221134
0.2032348	-0.111284174	0.016384056	-0.21378139	-0.4208277	-0.1993186	-0.23339851	0.25114262	0.3087167	0.19786683	-0.050925884	0.055051927	0.14449653	0.06310032	-0.24141674	0.26719353
0.14938378	-0.9786258	-0.7676627	0.93306315	1.3519666	-0.73696065	-0.80957776	1.2062944	0.74339503	0.53119373	-1.351358	-1.0567209	-1.3608245	-0.99050295	-0.9384645	0.85830176
-1.584239	1.7510656	1.2402146	-0.17232299	1.7010357	1.0873659	1.0555788	-1.9537555	-1.2305795	-0.86845154	1.2343535	1.3602377	0.8843814	1.5298234	0.9797827	-0.6776414
1.1412619	-0.76125824	-0.97014034	-1.4897654	0.36536172	-1.3485686	-1.2856747	-0.8823773	0.86904246	1.4739615	0.520874	-0.5976022	0.8214063	-0.19310541	0.33281812	0.3680931
-0.5367139	-0.16525066	0.044404265	0.4916692	1.1569601	-0.1537926	-0.22520766	0.4242705	0.13294737	0.08416758	-0.85812145	-0.4192183	-0.62339807	-0.1528729	-0.39454028	0.59561557
0.16430171	-0.4229252	-0.19876678	0.5456158	0.65182024	-0.14885916	-0.16135821	0.5589786	-0.036339793	0.04558288	-0.2422519	-0.6358903	-0.7400425	-0.5968394	-0.034781374	0.14458716
0.9572828	-1.0259414	-0.6367078	0.8518575	0.53021574	-0.3678319	-0.42168754	1.4723929	0.15731092	0.28536266	-0.6118334	-1.0944046	-1.3084788	-1.2174226	-0.2676171	0.3884232
0.040686525	-0.09641861	-0.08271441	-0.1828809	0.22686999	-0.27837867	-0.2796574	-0.00016939518	0.17433716	0.33880606	-0.09160986	-0.0573883	0.042809717	0.01494591	-0.1277039	0.23663647
-0.59053844	0.5951407	0.4219659	-1.6805265	-1.6332179	-1.0464112	-0.9467594	0.4841976	1.5716642	0.78322953	-0.875861	1.2684544	1.6416672	1.273254	-1.1638327	1.2318766
-0.077131584	0.62785167	0.30706388	-0.3825216	0.12346212	0.22969265	0.21507268	-0.9028912	-0.33001915	-0.093324535	0.6774501	0.35675877	0.55289453	0.36628714	0.34997785	-0.121227026
0.09778421	-0.08073324	0.0829688	-0.14026956	-0.27109444	-0.11164375	-0.16950454	0.44652668	0.21112868	0.0758059	-0.14536308	0.04676993	0.076190464	0.06816873	-0.18914671	0.27551952
0.33352003	0.034757208	0.25430235	0.29657847	-0.52906597	0.19645065	0.15992033	0.68243325	-0.07140475	-0.22333948	0.15467049	0.046979688	-0.22871311	-0.2909622	-0.043089967	-0.012604947
-0.07748593	-0.33126467	-0.36557382	0.15007019	1.3176552	-0.30174732	-0.32570174	0.086095676	0.03527072	0.29886597	-0.37862724	-0.6225736	-0.5142377	-0.47809017	-0.044648014	0.28615406
0.04729763	-0.11996273	-0.03360778	-0.029427592	-0.08816914	-0.18419036	-0.192199	0.3696123	0.15275572	0.17115365	-0.0636782	-0.102884434	-0.0524571	-0.10020706	-0.12673683	0.24994817
-0.12168674	-0.01759564	-0.09837885	-0.17405653	0.92662436	-0.17047691	-0.1298249	-0.45789078	-0.15507919	0.16730931	0.1451042	-0.28288874	-0.007341976	0.01534792	0.26759216	0.07398988
0.18258224	0.42710674	0.5301681	0.5462718	-0.35506657	0.7100375	0.6552836	0.40283266	-0.5170465	-0.72002697	0.4003227	0.11840012	-0.39589453	-0.28331256	0.28496262	-0.32366797
-0.06604041	-0.18620186	-0.12987751	-0.30187127	0.06614311	-0.4855039	-0.510828	0.30856475	0.5120879	0.3685728	-0.54701585	-0.024671795	0.151026	0.15306337	-0.5505063	0.58205223
-0.022880875	0.23053288	0.18781269	-0.24358085	-0.10640993	-0.067466915	-0.048934724	-0.2810809	-0.08712958	0.14308542	0.372075	0.25595787	0.3521915	0.21055152	0.14653271	0.01455288
1.1960193	-0.4583352	-0.5258996	-0.3980669	0.122050695	-0.2377254	-0.22291963	-0.7652133	-0.3104442	0.4551858	1.0765835	-0.6336517	0.13335566	-0.55047834	0.77426416	-0.41462085
1.6127106	-0.3088257	0.5511533	1.3019966	0.22248776	1.0966167	0.8892079	1.4559847	-1.1135385	-1.0436352	0.9330704	-1.201865	-1.3642671	-1.4355555	0.71928686	-0.7892509
0.24697839	-0.33924803	-0.30139565	0.27870238	0.41921028	-0.13272999	-0.27751273	0.3971438	0.070084386	0.11794795	-0.26419356	-0.5053967	-0.41735205	-0.43402103	-0.09097811	0.21142954
-0.19425735	-0.4326475	-0.22480269	0.30675188	0.74882185	-0.35133496	-0.38886198	0.55492526	0.24179003	0.13667381	-0.7737288	-0.5116027	-0.52095443	-0.30275863	-0.44725373	0.4771262
0.5354857	0.36729032	0.71617323	0.81254655	-0.8564858	0.8408083	0.8100876	1.739329	-0.46537074	-0.9333273	0.4143003	-0.03366755	-0.61102074	-0.58337975	0.20093225	-0.2811364
-0.616263	0.52161825	0.61596566	-0.25740582	-0.8323792	0.015589573	-0.0738973	0.8712948	0.5686291	-0.21069987	-0.6607456	0.71554035	0.43620116	0.6216132	-0.7172305	0.60973674
-0.099598885	-0.14928196	-0.06293862	0.08451694	0.03388396	-0.17892359	-0.27915472	0.5349858	0.33412364	0.12612851	-0.51962817	-0.058560055	-0.11180885	-0.048251208	-0.41199288	0.34969586
0.059207477	0.30099565	0.11969797	-0.6040385	-0.6180288	-0.14479417	-0.14538807	-0.1476259	0.32815212	0.25840795	0.07467976	0.49206245	0.67119527	0.39343688	-0.19463581	0.29930565
0.11123816	-0.08303079	0.062015448	-0.106087856	-0.64226913	-0.25335285	-0.23440063	0.7493253	0.35436833	0.20878091	-0.28700283	0.22784175	0.15651588	0.0007295252	-0.37609342	0.33732027
1.5342399	-1.007099	-1.1214644	-1.5489761	0.78792113	-1.2557775	-1.1857603	-1.5966699	0.16792956	1.4782871	1.7972467	-1.0464504	1.3007374	-0.38669533	1.3972323	-0.40613025
0.17479321	-0.09696317	0.048013233	0.81753397	0.89277136	0.31736106	0.2328012	0.24820772	-0.5997872	-0.4091563	0.26336044	-0.68186975	-0.8988684	-0.70973307	0.44874558	-0.2941257
0.21496496	-0.40118977	-0.24878557	-0.4089861	-0.61634356	-0.57074875	-0.61695284	0.5743968	0.68430007	0.59195614	-0.50726473	0.023819342	0.22741562	-0.002057909	-0.52972585	0.53580546
-0.5533463	0.7099707	0.68649966	-0.35133383	-0.93768287	0.112076364	0.1823193	0.5913569	0.3596743	-0.2893838	-0.39958593	0.7914961	0.64099467	0.5767081	-0.53898937	0.38060936
0.61871123	-0.16429283	-0.26659784	-0.32364875	-0.007815195	-0.1267541	-0.17211492	-0.5219179	-0.1702166	0.323611	0.6100487	-0.24410972	0.2511324	-0.18062155	0.3807557	-0.116449915
1.2807572	-1.149351	-1.1578935	-0.9054056	0.8901668	-1.3063189	-1.263193	-0.23547123	0.9349121	1.3884861	-0.15905508	-1.1117439	0.011773324	-0.86722356	0.03401265	0.6155291
0.3469794	-0.3754244	-0.40241504	-0.24839261	0.34752712	-0.4481526	-0.44631803	-0.042052396	0.25089455	0.4921854	0.023948595	-0.32890484	-0.038155958	-0.23915282	0.0074807	0.22867067
-0.6763581	0.89384466	0.4413665	-0.44916895	1.5040315	0.46041977	0.45571274	-1.8793873	-0.98212755	-0.23243493	1.4739965	0.5343133	0.9124468	1.0213928	1.2829696	-0.72008854
0.16142096	0.29735678	0.3766109	0.28362378	-0.38229522	0.40787178	0.3441245	0.39710286	-0.22296868	-0.44068208	0.34279072	0.15414636	-0.1217224	-0.11779705	0.15233068	-0.1861522
0.63769734	0.11860116	0.5746995	0.9172284	0.018311983	0.83951586	0.6720622	1.1780803	-0.7547922	-0.8767924	0.7055419	-0.4523553	-0.79921466	-0.86436534	0.4179374	-0.5529851
0.3073822	-0.32249224	-0.2650439	-0.035631232	0.121127024	-0.27806252	-0.2582427	0.22418474	0.11386944	0.27742246	-0.07121838	-0.2671655	-0.09977391	-0.2700616	-0.08679898	0.17604513
-0.24510737	0.040363222	-0.032385394	-0.24303977	0.20341882	-0.18643093	-0.19337079	-0.03299719	0.18979771	0.25031492	-0.19274457	0.011500742	0.16440314	0.18296468	-0.17032942	0.29678914
0.42572385	-0.16515866	-0.15782247	0.07848718	-0.074941754	0.042545605	-0.0068024816	0.05007015	-0.17008756	-0.013049342	0.2934028	-0.27273014	-0.19649366	-0.3056239	0.2216356	-0.05290733
0.63327986	0.1249934	0.6054579	0.83516437	-0.67204064	0.8445693	0.7794781	1.2725067	-0.57060575	-0.88819593	0.46281072	-0.2061545	-0.6497747	-0.73633003	0.266419	-0.45589036
-0.17795765	-0.44866613	-0.25647748	0.71701896	1.161747	-0.14335291	-0.17289849	0.6023802	0.09599847	-0.009217051	-0.6991294	-0.6002213	-1.0066657	-0.5528735	-0.33267874	0.24228011
-0.21716003	0.07775594	0.1388512	-0.21253876	-0.30746746	-0.24479595	-0.21694174	0.3970463	0.3163747	0.14315677	-0.31108132	0.21936804	0.24112149	0.20930335	-0.3559533	0.37551507
-0.117988534	0.041722164	0.052877173	-0.17720185	0.07112002	-0.12630266	-0.16728877	0.0681161	0.16440605	0.14235912	-0.17655762	0.16761689	0.15869235	0.25485906	-0.23739956	0.25681025
0.17222224	-0.1549916	-0.11883758	-0.041819736	0.217725	-0.15895082	-0.23518935	0.11059902	0.054497458	0.20054837	-0.006617004	-0.18237232	-0.14726014	-0.17672403	0.02748058	0.16003
-0.75895613	0.6695272	0.5925572	-1.1301483	-1.1205305	-0.5604559	-0.6185827	0.88581806	1.0366831	0.19669975	-0.7542737	0.9623035	1.1018035	0.94423825	-0.89213985	0.83869654
-0.6839836	0.8895299	0.63899505	-0.6092247	-0.21218444	0.13873562	0.15745078	0.13279387	0.2503637	-0.26303947	-0.26799363	0.6944841	0.6663	0.8199695	-0.38501394	0.44503975
1.2969683	-0.78842217	-0.95042557	-1.5432466	0.15716478	-1.2874889	-1.3239691	-1.1700866	0.53592336	1.4731158	1.0771302	-0.5522094	1.2252924	-0.09989817	0.6533795	0.20018007
-0.35596514	0.03097658	0.16510159	0.4000191	0.5595475	0.036262855	-0.083188444	0.5266949	-0.028967714	-0.13892606	-0.38909602	-0.18862516	-0.4796479	-0.15962604	-0.2761774	0.24549866
-1.2429614	1.0117148	0.9086232	-0.9425894	-1.7005167	-0.5126449	-0.59485376	1.7455993	1.2594545	-0.040022947	-1.2459346	1.2427181	1.0680853	1.0329428	-1.234232	1.0676332
0.92429596	-0.34121257	-0.5458343	-0.69174296	0.26772913	-0.33131963	-0.34353134	-1.1288353	-0.41804093	0.57819176	1.2528743	-0.4394792	0.4208463	-0.33380148	0.87870675	-0.44776946
0.118178755	-0.44199604	-0.15505199	0.35156628	0.37155256	-0.25239304	-0.3238019	0.80382967	0.22380808	0.21870291	-0.4965064	-0.41988465	-0.5522916	-0.515779	-0.2506889	0.28107062
0.32833785	0.032839566	0.03282857	-0.37990987	-0.491406	-0.23279439	-0.17495891	0.11959035	0.16246441	0.31749016	0.14265214	0.14417589	0.34205985	0.03743845	-0.11205382	0.18071614
-0.3946491	0.53346515	0.59741753	0.14992677	0.07391903	0.36890778	0.35080355	-0.000999504	-0.24547066	-0.45183232	0.17556934	0.30969656	0.046603207	0.13346034	0.04453578	-0.08851354
-0.44393235	-0.09464199	0.08429908	0.13322963	-0.3788658	-0.33218858	-0.3857964	1.2055362	0.62157696	0.0867129	-0.9260402	0.1312714	-0.064174004	0.100982115	-0.73320717	0.6048121
-0.53071314	0.40596193	0.44764638	-0.4345879	-1.0322179	-0.1881139	-0.19650827	0.95530295	0.8052849	0.06595227	-0.7432106	0.84760946	0.63014597	0.74090576	-0.8887236	0.7306104
1.0784299	-0.59471226	-0.32719427	1.0708841	1.0544605	0.43792737	0.27288136	0.6809458	-0.7489731	-0.42732444	0.5296823	-1.2795296	-1.2769105	-1.3117543	0.6643156	-0.55066305
0.106488265	-0.44229814	-0.22604042	0.4535138	0.3424459	-0.21741395	-0.31192726	0.759222	0.26921496	0.09134031	-0.54009324	-0.3815753	-0.60255295	-0.41715384	-0.36794215	0.33031714
-0.47184092	0.39110565	0.46148857	-0.23649582	-0.35265887	0.04702937	0.041287255	0.27239335	0.25660598	-0.18552697	-0.21243109	0.5290962	0.3154021	0.45176905	-0.3533661	0.3111998
0.60122573	-0.24729005	-0.32680595	-0.63416785	-0.59899414	-0.43782178	-0.47434908	-0.29004842	0.22951813	0.62353384	0.41225368	0.1187762	0.48801458	0.055049077	-0.005910927	0.2502119
-0.6057452	0.6730707	0.5454595	0.019008905	0.5101872	0.2801272	0.2427081	-0.5430709	-0.24639496	-0.3081082	0.19588687	0.36513874	0.2717785	0.44394973	0.21798758	0.041539885
-0.4141961	0.37631977	0.66120416	0.10482935	-0.75257176	0.19645329	0.1785787	1.2525796	0.3259718	-0.4708623	-0.49127215	0.4217655	0.1332709	0.26517025	-0.49676833	0.30775708
0.40577522	-0.25044036	-0.2534781	-0.27911603	-0.49347922	-0.37427145	-0.4517389	0.2435788	0.30608577	0.41687763	-0.083365425	0.0094331065	0.2049451	-0.045357756	-0.2661808	0.25941417
0.7828001	-0.14539285	-0.4485701	-1.2899326	-0.23216957	-0.77572817	-0.721374	-1.0691887	0.2148421	0.9842322	0.953581	0.037286703	1.2771373	0.30826968	0.502337	0.00027457002
0.4700749	-0.36811158	-0.23023094	0.5299027	0.31890935	0.10042564	0.004111001	0.44470367	-0.25239575	-0.08032366	0.1471761	-0.6324982	-0.68070877	-0.6638758	0.28040862	-0.12681217
0.5260837	-0.13080578	-0.13536009	-0.050802283	-0.2701149	0.055275828	0.04027749	-0.097059205	-0.21640505	0.080832094	0.50917315	-0.15842868	0.053544812	-0.1972377	0.25290838	-0.13092421
0.3194827	-0.05141679	-0.13192487	-0.82172614	-0.4507364	-0.52735996	-0.57243115	-0.1296433	0.5408865	0.6204596	0.09991664	0.25721353	0.67518693	0.2908765	-0.24491654	0.42006645
0.87892467	-0.47297835	-0.85024744	-1.3478234	0.89924383	-0.9146654	-0.8388601	-1.5400501	0.119036995	1.0653542	1.6228807	-0.81876737	1.2603313	0.059714504	1.3438281	-0.024384499
-0.16869824	0.37145087	0.18037681	-0.56772304	-0.34037176	-0.040530264	-0.0746034	-0.37072185	0.15753673	0.14191176	0.22846635	0.45787528	0.716841	0.5038598	-0.10492016	0.17445937
-0.100877434	0.37394804	0.10188591	-0.6301792	-0.05537406	0.009792838	0.0019507699	-0.6027997	-0.015608825	0.13215707	0.3760292	0.353065	0.68132275	0.51133907	0.11932139	0.05573097
-0.30966052	0.18540947	0.1281367	0.150218	0.6835027	0.19458193	0.086877696	-0.22062273	-0.2997172	-0.12476951	0.10079612	-0.12725267	-0.25844756	-0.03113569	0.20724945	-0.07629732
-0.38261524	0.4648525	0.20800568	-1.0662138	-0.8521057	-0.4786117	-0.44799253	0.028713286	0.83536756	0.36668107	-0.32043013	0.8342627	1.1604409	0.88217443	-0.6103242	0.7237027
1.1150821	-0.5524914	-0.73169476	-1.5128059	0.11092865	-1.1761738	-1.0946482	-1.2852978	0.347708	1.3030795	1.406939	-0.5658839	1.4195355	0.08884561	1.1237924	-0.11150269
1.1041946	-0.43618038	-0.49300113	-0.34885362	-0.057925634	-0.14289758	-0.2148291	-0.7329851	-0.31786865	0.45003706	1.0131708	-0.56286657	0.13139842	-0.573846	0.7142747	-0.40828434
-0.08106912	0.26233265	0.4524701	-0.09827711	-0.84190476	-0.015149903	-0.06305906	1.3445334	0.29265717	-0.10880611	-0.27889404	0.48007697	0.2265464	0.10861376	-0.44689518	0.3260599
-0.7462385	0.849437	0.5623987	-0.12609935	0.6159718	0.4388657	0.38057184	-0.9683066	-0.48871374	-0.30226624	0.52632946	0.51492536	0.3970202	0.70101255	0.34430137	-0.17955181
-0.38278922	0.33487943	0.30092466	0.34638402	0.54165107	0.40936425	0.30687135	-0.06465961	-0.4149979	-0.45060936	0.08069859	0.06829054	-0.24974161	0.10554001	0.124094	-0.19016583
-0.71343863	0.8333424	0.7405028	-0.51144797	-1.177622	0.051111687	0.049662504	0.8093657	0.67799675	-0.20052794	-0.63021445	1.0079114	0.72763306	0.76709735	-0.8224008	0.55923915
0.9045475	-0.3348861	-0.16546185	0.12447245	-0.6950955	0.1387276	0.15124854	0.37139598	-0.18658407	-0.08605983	0.46343273	-0.25680858	-0.11786014	-0.48514795	0.23233852	-0.19486411
-0.053727053	-0.15942305	-0.28497994	-0.28489384	0.9305445	-0.33439353	-0.370835	-0.24748902	0.046072092	0.37316975	-0.016684089	-0.32847133	0.04228461	-0.053288877	0.024452051	0.17811798
0.27693924	0.10728668	0.0075680614	-0.16074438	-0.09314679	0.029916292	0.08382122	-0.42196804	-0.22084606	0.11884689	0.51675266	-0.015736004	0.19076192	-0.13564715	0.35302347	-0.19299994
0.34994882	-0.512564	-0.26910883	0.4423269	0.19943339	-0.25459492	-0.26120713	0.8130446	0.1262064	0.06522026	-0.40450516	-0.5157493	-0.51268226	-0.55068344	-0.14057443	0.2347527
1.1561525	-0.87215817	-0.5704091	1.1759051	0.72209257	0.0025749758	-0.040730502	1.4274791	-0.36137655	-0.104484364	-0.13117799	-1.2983252	-1.4852799	-1.4287956	0.25706524	-0.18200804
0.00819154	-0.18096969	0.0443532	0.17974074	-0.57992005	-0.05717344	-0.17528729	0.8639774	0.38010278	-0.047324255	-0.49161527	0.12379843	-0.008302565	-0.0164732	-0.53905106	0.4480398
0.14206225	-0.021396494	-0.07190907	0.011010637	0.13004486	-0.07220971	-0.028807724	-0.16358384	-0.037645146	0.096779875	0.1996449	-0.09229866	-0.08247172	-0.120669656	0.10043621	-0.028551135
-0.04265899	-0.11763712	-0.05107418	0.027331455	0.0016128469	-0.113509536	-0.12584688	0.39174372	0.17976092	0.0040095113	-0.37518945	-0.049628507	-0.11594446	-0.054396767	-0.29105812	0.25212434
-0.39664593	-0.02159571	0.09620231	0.28579122	0.58122814	-0.052569307	-0.07990177	0.4090297	0.16015676	-0.115951285	-0.585442	-0.11717257	-0.29070798	0.0465799	-0.3931994	0.41630524
0.06163326	0.22968015	0.122992106	-0.57058376	-0.4983242	-0.14181317	-0.13613345	-0.12195397	0.22562529	0.23656647	0.13565247	0.35228547	0.5617386	0.34560052	-0.18863402	0.19948053
-1.0038548	0.87050414	0.82623535	-0.7455155	-1.5846816	-0.40716505	-0.42913848	1.7498639	1.0850054	0.061700817	-1.0360446	1.1865002	1.0088414	0.9312028	-1.123205	0.965447
0.34194717	0.0075116158	-0.18368654	-0.43836275	0.21646929	-0.086634494	-0.070817515	-0.61803526	-0.11183044	0.288697	0.58776	-0.12187704	0.31787428	0.06530484	0.35431594	-0.103199035
0.2410908	-0.40266755	-0.3192721	0.32128328	1.1078066	-0.13566738	-0.20801254	0.18974541	-0.11279751	0.19338498	-0.15509105	-0.6070488	-0.6957482	-0.5593144	0.19342288	0.062072936
0.02393425	-0.4251837	-0.20941524	0.40589577	0.12887093	-0.21193871	-0.2832859	0.88838726	0.42112628	0.0397717	-0.80453324	-0.31655312	-0.5124031	-0.3140676	-0.57483035	0.4908251
-0.8420671	0.65752435	0.6599823	-0.013637643	0.019281918	0.37774038	0.32293397	0.13292913	-0.017823143	-0.52499	-0.3188069	0.56462914	0.27737036	0.6092577	-0.25503105	0.21472047
0.7978747	-0.5732448	-0.48483658	-0.08869568	-0.31107277	-0.2666693	-0.34659246	0.115577884	0.12914862	0.4240783	0.21370211	-0.42608592	-0.038855027	-0.42891845	0.12246443	0.052342273
-0.02584401	0.33369723	0.1687581	-1.1143281	-1.2236339	-0.7258861	-0.77350146	-0.0044724504	0.94773835	0.7008312	-0.28040504	0.88634884	1.1868582	0.8985973	-0.68970704	0.7173928
-0.043627772	-0.41006693	-0.09887388	0.30058193	0.07349233	-0.31903836	-0.35817704	0.9967318	0.4166972	0.118843235	-0.76731896	-0.3219451	-0.44479588	-0.22970887	-0.55103934	0.4219968
-0.30012098	0.2076165	0.34407282	0.42274022	0.022396538	0.2899941	0.24040487	0.6604442	-0.03732986	-0.39850834	-0.24137644	0.043335903	-0.22911623	-0.06387519	-0.1600682	0.09787085
-0.046362527	-0.3400491	-0.24019866	0.48915854	1.0032563	-0.15795788	-0.24309503	0.3531897	-0.014685053	0.07265928	-0.46065125	-0.5793999	-0.6990037	-0.49470457	-0.10151663	0.21556482
0.02558647	0.26278153	0.37897432	0.4684715	0.042004634	0.4756556	0.4891078	0.23836747	-0.3788834	-0.53280514	0.2749372	-0.048213217	-0.33972266	-0.20391327	0.22194439	-0.24769911
1.3724493	-0.9232403	-1.0972528	-1.7417228	0.58286595	-1.4588814	-1.3528471	-1.6275215	0.4030231	1.5004431	1.7192701	-0.9171814	1.6678118	-0.14175181	1.4333344	-0.22537695
0.25069085	-0.7505562	-0.72998565	-0.080370985	0.96241647	-0.83205897	-0.7611707	0.5045946	0.8231741	0.75169265	-0.7761789	-0.7124251	-0.56947035	-0.58804977	-0.61093545	0.74084103
0.6563001	-0.36171687	-0.4653851	-0.20848365	0.23606512	-0.22948346	-0.3252692	-0.43204087	-0.16923895	0.4232584	0.63896894	-0.51674265	-0.007256115	-0.47927505	0.46080995	-0.06473612
-0.4205462	0.4344963	0.3705768	-0.22728524	-0.11650614	0.11031942	0.09046543	0.061324812	0.08424049	-0.15060934	-0.14553306	0.39620987	0.28893963	0.4273634	-0.15345739	0.15809909
0.19189683	-0.7212714	-0.4979031	0.36525622	0.63534266	-0.61849815	-0.5793813	0.8369809	0.49199522	0.4505105	-0.80770886	-0.7017379	-0.73314136	-0.61816835	-0.46427974	0.55933565
0.05385513	-0.19215304	-0.08273698	0.37839282	0.824928	0.05668353	-0.018631272	0.25255305	-0.23877572	-0.13826047	-0.16484372	-0.46221834	-0.46351963	-0.32345816	0.12079551	-0.023682313
-0.07942728	-0.7227528	-0.48245856	-0.062359102	-0.09200178	-1.1018493	-1.016931	1.5374497	1.584971	0.82719934	-1.6646172	-0.1939704	-0.24204229	0.008489161	-1.5245672	1.3177882
-0.102030285	-0.17587857	-0.06724341	0.24775662	0.65259147	-0.16921322	-0.16553017	0.28043613	0.07312257	0.06252438	-0.35844815	-0.32429346	-0.39914918	-0.15281299	-0.22237936	0.2586537
0.53107285	0.09614656	0.28683886	0.31728175	-0.57229	0.28671566	0.23496579	0.5934096	-0.25072914	-0.28160304	0.43587974	0.03404798	-0.23045543	-0.42528892	0.10327518	-0.091166556
0.4467406	-0.7439748	-0.52675897	0.64868635	0.60837	-0.35755032	-0.42167014	1.1535723	0.34303918	0.23798493	-0.84042686	-0.7467823	-0.98009694	-0.89481	-0.49302408	0.43886325
0.87626123	0.46856	0.9576215	1.2009039	0.4329802	1.0506374	0.9494465	0.5505481	-1.1351119	-1.0693655	1.0014229	-0.74752223	-1.088673	-0.9617707	0.77660745	-0.7035216
-0.019522099	-0.28287387	-0.19869836	0.023978785	0.56978226	-0.24560478	-0.3072664	0.077198826	0.13051061	0.21050002	-0.18381101	-0.33390114	-0.25486645	-0.2631987	-0.12832378	0.22213425
0.25186324	-0.6804492	-0.58615965	-0.06439481	0.52172136	-0.67226315	-0.69567436	0.32472786	0.5677305	0.623913	-0.6172082	-0.55727965	-0.2928129	-0.36749694	-0.4413146	0.53806293
-0.20364109	-0.45907092	-0.09620238	0.33241183	-0.26390246	-0.5065459	-0.5513461	1.5626289	1.0827943	0.10712455	-1.3346579	-0.095321245	-0.31894985	-0.0200026	-1.1816939	0.95245177
1.10105	-0.42188224	-0.7564866	-1.3640167	0.18155107	-1.0084594	-0.9165535	-1.4611608	0.31453177	1.2513347	1.5218309	-0.3401492	1.2930315	0.2590701	0.9411743	0.021663599
-1.322362	1.0626533	0.939429	-1.1606624	-1.54179	-0.49164698	-0.46215606	1.3160412	1.2989681	0.10445331	-1.252176	1.2761526	1.2593342	1.2134111	-1.1832899	1.1415284
-0.45105323	0.65278065	0.44751853	-0.45252258	-0.1472913	0.02733913	1.626651e-05	-0.47297516	0.02701002	0.029694239	0.18593183	0.5556662	0.618889	0.5684562	-0.10202452	0.24730322
0.94724655	-0.27023652	-0.1554729	0.2774378	0.5594298	0.25670266	0.11139213	-0.220427	-0.654627	-0.0127860885	0.8217285	-0.84317786	-0.4922263	-0.7651804	0.75159645	-0.48482406
0.03614201	0.03305111	0.082260944	-0.56780785	-0.93893504	-0.45556915	-0.4819584	0.733417	0.71569276	0.3691733	-0.39883113	0.46134067	0.5555141	0.34037116	-0.55410033	0.53838444
-0.02347987	-0.14595462	-0.032506183	0.07461389	-0.078829266	-0.15418927	-0.14366598	0.3775923	0.15174392	0.039275996	-0.2044621	-0.0072519355	-0.04656173	-0.046292398	-0.14435117	0.1818326
0.4678878	0.07294665	-0.25422278	-1.1082196	-0.4790661	-0.59328306	-0.5184622	-0.8066907	0.4020545	0.67086357	0.67500347	0.33239335	1.2069541	0.52422667	0.15565905	0.25036538
-0.23736012	-0.03864748	0.067514725	-0.338059	-0.25477877	-0.34930512	-0.31812933	0.4587785	0.5041754	0.29399464	-0.49592185	0.2461786	0.3384358	0.33073476	-0.4716942	0.5371942
0.36055863	0.026523426	-0.12362401	-0.025115382	1.0642078	0.15289827	0.18154852	-0.75934726	-0.6792013	9.612306e-05	0.90334255	-0.45601606	-0.23614062	-0.39536127	0.883469	-0.5293482
0.010241705	0.41744128	0.10087748	-0.8451319	-0.1852781	-0.10355336	-0.043085463	-0.8627775	-0.0038495772	0.21954308	0.8236285	0.34173402	0.9843588	0.7107724	0.30190498	-0.07004169
-0.11165296	0.19967063	0.3221909	0.16897923	-0.45804778	0.21492718	0.20760335	0.60992354	0.03114402	-0.33376005	-0.07211848	0.2467218	-0.066292524	-0.016200487	-0.13925381	0.078346275
0.17170517	-0.26018387	-0.15748169	-0.24181469	-0.09666783	-0.3970699	-0.37834644	0.28551066	0.37273282	0.34912488	-0.26340944	-0.06573177	0.1267499	0.031251967	-0.2903057	0.3050165
0.0014783224	0.13105913	0.10613854	-0.6449455	-0.86392856	-0.31382746	-0.35980055	0.31660444	0.5865152	0.36454594	-0.1964982	0.4534935	0.65442884	0.37750775	-0.4345824	0.4974028
0.78593314	-0.10357993	-0.15076675	0.04671554	-0.09692724	0.17899555	0.19421902	-0.2960187	-0.3828225	0.014713634	0.77578604	-0.393204	-0.13075888	-0.5978239	0.52859765	-0.41267234
0.47488403	-0.33476314	-0.47883984	-0.81984156	0.4912599	-0.52825844	-0.50254905	-0.79570436	0.11065196	0.69280136	0.50196683	-0.28751037	0.5023466	-0.032417834	0.37933365	0.07188308
0.55652475	-1.0459847	-0.93745935	0.71804106	1.0414393	-0.7985461	-0.8202924	1.0418595	0.9366161	0.6619698	-1.1348755	-0.93477756	-1.1740336	-0.99432695	-0.92443454	0.84062004
-0.26985973	0.16173427	0.26423794	0.03768165	-0.3249937	0.075868815	0.022719452	0.5893454	0.23188515	-0.17132472	-0.35945937	0.2521613	0.011468898	0.16291511	-0.3745708	0.2826366
-0.2434347	0.0007604437	0.13833651	0.11921665	-0.25472623	-0.11218178	-0.19948448	0.834351	0.31792817	0.028884845	-0.632408	0.1367531	-0.11617096	0.046739615	-0.50512445	0.35493293
0.0033667744	0.08800418	0.053799294	-0.08760058	-0.07382603	0.04751448	0.0063115866	-0.07567735	-0.05016172	0.0023306254	0.11705849	0.101352856	0.11604183	0.046990085	0.011674449	0.051162004
-0.009688648	0.10331223	0.27824733	0.23765916	-0.8596104	0.20879827	0.20233268	1.1752285	0.29213902	-0.37234542	-0.38590062	0.26715094	-0.030385632	0.020475972	-0.38653046	0.26445326
0.5931864	-0.08511993	-0.24624589	-0.39425078	0.26829505	-0.07594099	-0.059787065	-0.65184414	-0.33935097	0.25243974	0.78159636	-0.26342803	0.27759638	-0.15332675	0.5357881	-0.3264049
0.13969745	-0.04760873	0.1047125	0.117325634	0.088686526	0.11336152	0.0032145635	0.14705223	-0.16070537	-0.07919466	0.15527591	-0.17937033	-0.13278875	-0.21451126	0.07462185	0.0027522629
0.17063528	-0.15470918	-0.19706202	-0.2931468	0.107052505	-0.2758165	-0.31369522	-0.26991123	0.065781765	0.37030154	0.081623614	-0.118147686	0.19466016	-0.05111391	0.03894025	0.14088033
0.49320963	-0.3154417	-0.34709576	-0.36738607	-0.02325845	-0.284289	-0.24716072	-0.3160803	0.040625066	0.37103045	0.3468833	-0.22160967	0.20509332	-0.18965875	0.23677403	0.011469994
-0.10989633	-0.39175686	-0.2562365	0.17184979	0.65467983	-0.2606282	-0.281839	0.28070256	0.28123596	0.13325676	-0.5419833	-0.34364718	-0.35804638	-0.19562322	-0.3058277	0.35052297
0.069634385	-0.057327237	-0.05747905	-0.10167305	-0.31748128	-0.20472218	-0.19173539	0.21780284	0.179284	0.16618456	-0.09146987	0.1400667	0.16756618	0.06217993	-0.15083475	0.22231923
0.024390435	0.21520473	0.19502734	-0.33818576	-0.3192343	-0.017995307	-0.01601244	0.01861373	0.16727248	0.09917077	0.115588754	0.28876287	0.3146557	0.20677358	-0.086712494	0.13234128
-0.22387485	0.042448398	0.08550382	0.089276426	0.36416042	-0.0069509363	9.6823285e-05	0.091349885	-0.09681673	0.013441433	-0.058960028	-0.11110666	-0.18537511	-0.0017059299	-0.010820061	0.099387966
0.14173394	-0.16891901	0.019942788	0.2160427	-0.28183335	-0.0477912	-0.13152093	0.6022724	0.21053445	0.024914814	-0.27900368	-0.05245629	-0.23706461	-0.1727513	-0.1918009	0.16637534
-0.22393455	0.5062654	0.58876586	-0.11711282	-1.2684754	0.20675196	0.20221621	1.1978831	0.44352898	-0.29315653	-0.2818464	0.6067513	0.38794923	0.2828041	-0.4799207	0.38867047
-0.33950868	0.86329556	0.91837263	0.5198866	0.0023436653	0.7788198	0.6979881	0.07400014	-0.56964093	-0.824678	0.46378937	0.22882694	-0.28181794	-0.12806368	0.26604185	-0.26891243
0.24646197	0.1396225	0.07613673	-0.31609735	-0.37658384	-0.10821155	-0.034818687	-0.24912298	0.004167254	0.23458375	0.41226837	0.19253732	0.36217606	0.07221822	0.066537425	-0.020855952
1.2050174	-0.46726522	-0.8359777	-1.6742004	0.3564659	-1.2630754	-1.1736664	-1.5689003	0.23539329	1.4085011	1.6386838	-0.41522858	1.620852	0.37926623	1.2228273	-0.34301314
1.0276121	-0.3766984	-0.46721938	-0.36166286	0.23273744	-0.1968884	-0.21884686	-0.66998416	-0.30236104	0.36012626	0.8787692	-0.56861216	0.096405774	-0.55387336	0.67765325	-0.45847422
-0.13774632	0.32535022	0.37242165	0.13281025	-0.4596545	0.19584689	0.13680048	0.42737138	0.0031588757	-0.2457061	-0.009292299	0.23213516	0.038552538	0.044400685	-0.15181816	0.044281933
0.30658045	-0.17971966	-0.11453888	0.15719514	0.31813255	0.05499065	0.038083207	-0.16149728	-0.21349485	0.041401573	0.25558516	-0.29786175	-0.2706158	-0.3367735	0.21948518	-0.16070002
0.025547914	-0.036623802	0.0018699091	0.083409846	0.18983917	-0.044248044	-0.04459469	-0.019682707	-0.030270768	0.110695764	0.07669566	-0.1550847	-0.15120932	-0.12887104	0.05442189	0.05295473
-0.0039279154	0.37354583	0.23627688	-0.007282312	0.39927492	0.38531566	0.38093844	-0.7447667	-0.54924625	-0.27870035	0.8056326	0.016491655	0.0869219	-0.01107609	0.57917064	-0.49429482
0.49371243	-0.48235384	-0.45392573	0.091222815	0.3658495	-0.3568505	-0.40001053	0.24862584	0.104168035	0.34597147	-0.083333984	-0.5402871	-0.40380362	-0.54801494	0.03655506	0.12776779
0.6346079	-0.10057351	-0.3387957	-0.7402159	-0.13668977	-0.41268688	-0.3580625	-0.8024229	-0.07846856	0.5916747	0.8990674	-0.12963255	0.65649027	-0.029555254	0.5125254	-0.018673692
-0.28148505	0.27661115	0.25187925	-0.65269023	-0.9414587	-0.38578823	-0.28139058	0.37830484	0.63054264	0.31339154	-0.42209068	0.65522707	0.76361996	0.57965004	-0.53659743	0.5389372
0.37665215	-0.61248547	-0.4110895	0.7174417	0.7650761	-0.18000534	-0.21439327	1.0276791	0.18960263	0.097717404	-0.7699945	-0.8795003	-1.0817559	-0.90716225	-0.31484511	0.27827317
0.9222237	-0.40643528	-0.58138514	-0.91827196	0.08987216	-0.6062875	-0.57985646	-0.970684	0.048667554	0.7746792	1.0866954	-0.35594416	0.81467944	-0.00698358	0.6590692	-0.20688836
-0.6011953	0.7498349	0.4414978	-0.3053334	1.4861417	0.20896411	0.14637186	-1.4276961	-0.5374854	-0.0968755	0.95915866	0.4338307	0.7210156	0.8716503	0.90519893	0.20545764
0.06559442	0.307694	0.22351274	-0.30609453	-0.42630628	0.1380055	0.11545412	0.0896142	0.037851885	-0.04156554	0.25121787	0.2762161	0.2951271	0.1687168	-0.060119234	0.043978624
-0.18181378	0.1730441	0.09732487	-0.41697577	-0.05464378	-0.1450529	-0.091275565	-0.25919217	0.16661808	0.16443744	-0.00028019608	0.24345453	0.39216843	0.29505727	-0.12587918	0.21507119
-0.60811	0.6567124	0.4409864	-0.73085797	-0.919312	-0.16447574	-0.17507532	0.4260604	0.7069193	0.0903542	-0.49972948	0.8940333	0.8872418	0.8099399	-0.629031	0.5755768
-1.3717434	1.1221778	1.0201836	0.52039444	1.8000827	0.8277891	0.7975169	-1.1605732	-1.0342228	-0.8771469	0.5004344	0.5805751	-0.09839305	0.91141695	0.8112139	-0.44430897
0.44843385	-0.38762203	-0.22769366	0.5964767	0.45955437	0.1650692	0.11287287	0.5118097	-0.3345375	-0.28588292	0.10696398	-0.58989733	-0.6412233	-0.6533867	0.26782754	-0.22584698
-0.43125883	0.054738134	0.108300135	0.18208143	0.38622522	-0.016887514	-0.0763347	0.25470892	0.04252579	-0.012271332	-0.4231493	0.0596042	-0.1701116	0.121667445	-0.2921552	0.2006214
0.7912193	-0.9070506	-0.80568916	-0.064940065	0.818962	-0.7295369	-0.80545	0.3962991	0.6800586	0.73391104	-0.5326112	-0.950961	-0.53670955	-0.8705733	-0.4050305	0.50382626
-0.44207042	0.40513584	0.39511248	-0.26627305	-0.33023152	0.0025041194	0.022032868	0.09902551	0.25969216	-0.034064353	-0.13940412	0.4995518	0.40849867	0.5382065	-0.32098252	0.26948923
0.5515815	-0.0024981857	0.37605962	0.5857224	-0.44852364	0.4415785	0.26536745	1.2585878	-0.18911758	-0.5084826	0.11861608	-0.12811688	-0.48926792	-0.4251202	0.019948613	-0.11854875
0.6807692	-0.41016603	-0.56275326	-1.2276238	-0.25025785	-1.0208486	-0.96609753	-0.71710926	0.56754106	1.0062125	0.5475457	0.005092835	1.1010085	0.3036312	0.09953513	0.3024867
0.5390238	0.1706694	0.17100558	0.37537405	-0.23153724	0.46326214	0.41958976	0.09819635	-0.44695842	-0.38755393	0.6329072	-0.2162077	-0.35829648	-0.4929002	0.37990853	-0.330524
0.2503844	-0.3217657	-0.20754942	-0.14215599	-0.10224934	-0.3565832	-0.39717212	0.3001113	0.26409	0.37963378	-0.15119158	-0.09246151	-0.03770784	-0.15727732	-0.21451199	0.32862654
-0.6334603	0.66698754	0.672987	0.3336151	0.4566034	0.5358486	0.46510077	-0.24790333	-0.5106466	-0.54672956	0.32023004	0.26754403	-0.14445122	0.17600594	0.18367293	-0.09093382
-0.22473687	-0.21437964	-0.15029906	0.4848704	0.94195646	-0.10452216	-0.10321255	0.38272718	0.02617027	-0.076573096	-0.48358023	-0.422904	-0.62445635	-0.37392196	-0.18970405	0.19631138
0.4667818	-0.752731	-0.43369585	0.07295806	-0.18852648	-0.5307945	-0.56110716	1.1408706	0.57066536	0.44830006	-0.6525305	-0.46315435	-0.2896805	-0.37235412	-0.49808493	0.4591797
-0.24242586	0.18476096	0.20090927	-0.34321225	-0.3416248	-0.08854074	-0.08857962	0.3699291	0.28302634	0.04058352	-0.23804502	0.30644995	0.35741678	0.394976	-0.30995405	0.33916855
-0.42155463	0.36038083	0.32628223	0.44035804	0.58326197	0.43521434	0.38255724	0.022319952	-0.442829	-0.43688235	0.07076402	0.013235956	-0.37511685	0.0035116225	0.14724936	-0.21671005
0.7155829	-0.19395232	0.09666342	0.5317794	-0.82941335	0.6281921	0.57808405	0.9383809	-0.36094216	-0.5359101	0.5072439	-0.19686182	-0.34916744	-0.6167716	0.23393062	-0.29138753
0.37268838	-0.24163997	-0.25830978	-0.13484618	0.10940552	-0.15682591	-0.2421559	-0.04505621	0.040337037	0.20034574	0.14992708	-0.2291962	0.033635605	-0.24731843	0.04698614	0.03244028
-0.5619182	0.5708066	0.5849062	-0.2743178	-1.0069685	0.11440887	0.021266924	1.0449696	0.5144352	-0.35778123	-0.51436996	0.73666525	0.50036395	0.5423196	-0.64557946	0.46986267
-0.031548053	-0.33230934	-0.265825	-0.14057985	0.9663999	-0.43730426	-0.3650894	-0.035914935	0.14864118	0.42479765	-0.2390881	-0.36554784	-0.19353788	-0.21249953	-0.03233459	0.31264547
1.0562117	-1.2173495	-1.1954167	1.0317225	1.0475469	-0.9631824	-0.9523504	1.3046649	1.1608334	0.800486	-1.2934365	-1.1567676	-1.4321616	-1.2672735	-1.1729175	0.9286033
0.91314447	-0.5354613	-0.1859534	0.6158186	-0.46298274	0.42618456	0.29878822	1.5011505	-0.25479499	-0.40029958	0.31490034	-0.3351985	-0.55174327	-0.6556088	0.130876	-0.26018578
0.9458819	-0.2852276	-0.412549	-0.72496617	0.2094657	-0.43919882	-0.42136005	-0.78347886	-0.09493585	0.6049194	1.1940823	-0.55099267	0.6114759	-0.34697405	0.8691811	-0.37400514
-0.16155677	0.22488014	0.25263175	-0.053446513	-0.27147448	0.018141795	-0.02919299	0.26136258	0.13414992	-0.09360149	-0.081417106	0.2284438	0.09859569	0.17734301	-0.24296452	0.13697614
-0.34665152	0.1342191	0.41777113	0.38781866	-0.049498472	0.23491049	0.19080599	0.7622918	-0.06767325	-0.38193768	-0.28358003	0.020732751	-0.26015288	-0.023309069	-0.14113832	0.08769339
0.26490235	0.15986302	0.26850682	0.3547861	-0.6680012	0.37075377	0.41717055	0.8500431	-0.11080531	-0.49484292	0.14675516	0.119427115	-0.13920419	-0.2803496	0.037443966	-0.095928706
0.08037487	0.28250554	0.27058905	-0.054880258	0.066576764	0.2754152	0.2637311	-0.34401485	-0.34531897	-0.10623635	0.54346305	0.062033378	0.0892825	-0.024295697	0.37170187	-0.18147415
0.036184117	-0.029361136	0.0145074045	-0.26387507	-0.3017673	-0.19988501	-0.14037944	0.10546893	0.18278868	0.15308423	-0.088522054	0.12114332	0.23846032	0.08019518	-0.20950414	0.24534635
-0.59893566	0.35310143	0.29601896	-0.09704284	0.19141304	0.11791366	0.14913586	-0.10923894	-0.08376629	-0.21495727	-0.068159856	0.28263268	0.1392173	0.37634593	-0.16962491	0.10073092
-0.59690225	0.48114768	0.5035343	-0.65105337	-1.064734	-0.321984	-0.37033534	1.0283079	0.8215697	-0.09399354	-0.7511376	0.6772628	0.72177714	0.6882675	-0.7610365	0.65688366
-0.28712013	0.7737048	0.71390104	0.17530008	-0.2652084	0.666191	0.6429412	-0.04190417	-0.36938295	-0.5666601	0.4330605	0.4866514	0.013316442	0.15102182	0.19529516	-0.20027298
0.4336935	0.040180318	0.17588545	0.3248753	-0.29498935	0.32281047	0.29608506	0.17970239	-0.25450283	-0.21749415	0.4128733	-0.07106333	-0.17582208	-0.34304145	0.22769311	-0.24148002
-0.010797012	-0.16479488	-0.14142598	0.04615925	0.2274982	-0.1961333	-0.15692018	0.24730554	0.0867865	0.139591	-0.15575942	-0.21346201	-0.20165844	-0.15152279	-0.1664421	0.15386878
0.9269472	0.24959654	0.5959331	1.0887864	0.5485154	1.0063363	0.88697517	0.34394962	-0.9916348	-0.97249883	0.90354997	-1.009977	-1.0799805	-1.0631348	0.80605066	-0.76424813
-0.7395583	0.7258654	0.62673724	-0.8901332	-1.1638138	-0.45720845	-0.54083973	0.84177244	1.039824	0.2180743	-0.89561516	1.0058284	0.9814419	0.92674965	-0.92140025	0.8158891
-0.041442424	-0.13399749	-0.083198346	0.37913144	0.5191255	0.055088997	-0.060599115	0.24668808	-0.09527179	-0.055650305	-0.17685044	-0.30156955	-0.52199405	-0.29240113	-0.041496947	0.02822356
1.0539863	-0.14950927	0.26464206	0.7639452	-0.09412644	0.6916943	0.5642841	0.6411793	-0.72823787	-0.5940229	0.76834685	-0.6462054	-0.76080287	-0.8616781	0.52746856	-0.52866983
0.047708936	0.052799474	0.07228742	-0.34989625	-0.517713	-0.2335017	-0.30236498	0.31296325	0.3294154	0.2297527	-0.20431542	0.18963933	0.2830064	0.105270855	-0.24694763	0.31148133
-0.22034128	0.13553916	0.17794505	-0.16201617	-0.12517734	-0.09002263	-0.091318525	0.24448997	0.21219565	-0.04053564	-0.26299214	0.11095077	0.14884171	0.2554289	-0.31023106	0.27456376
-1.0601822	0.8366575	0.746004	-1.0004151	-1.454112	-0.41652	-0.31220302	1.136201	1.123269	-0.076128446	-1.0511804	1.074742	1.0554401	0.9849995	-1.0966548	0.97696805
0.0809887	-0.26870054	-0.20758577	-0.18748903	0.10874591	-0.4781472	-0.3929592	0.26237372	0.4000302	0.35822475	-0.39670578	-0.12949035	0.046245094	-0.011046729	-0.3926473	0.4335859
0.556713	-0.008563841	-0.1428402	-0.1036409	0.01981495	0.08477532	0.04390798	-0.49352255	-0.37141928	0.15283246	0.7079412	-0.20924936	0.105054826	-0.21962659	0.4946138	-0.28449795
0.0048660003	0.14378975	0.22776356	0.08513605	-0.36228883	0.22606257	0.21617733	0.30689886	-0.03312133	-0.17203534	0.06071225	0.094518766	0.005228536	-0.011240725	0.044502992	-0.05966163
-0.4261742	0.59773195	0.4675009	-0.22502969	-0.44203776	0.19265461	0.1450558	0.31612322	0.24406035	-0.26643935	-0.20875616	0.5086026	0.44001234	0.45825705	-0.29630318	0.26959762
-0.06852078	0.18661256	0.056825455	-1.2981228	-0.75903803	-1.0252326	-0.9331826	0.119173005	1.0069354	0.777841	-0.3156609	0.6168704	1.1485149	0.63281506	-0.5682742	0.6932134
-0.31522754	0.28004503	0.36788622	0.035289843	0.06417576	0.19702932	0.15699795	-0.0054602725	-0.09365583	-0.18963304	-0.053020217	0.25490603	0.1505134	0.21374157	-0.12568302	0.10760268
1.0256402	-0.45034245	-0.6192707	-1.322069	0.076348215	-0.98087937	-0.9247056	-1.2511401	0.08693255	1.1080045	1.3451494	-0.4371387	1.2884598	0.0077798124	1.0721301	-0.22512688
-0.053441882	0.38252452	0.5747854	0.7353321	0.61711186	0.5235246	0.41486344	0.10722474	-0.69540507	-0.5475304	0.43303198	-0.27576566	-0.6368866	-0.43702072	0.42887783	-0.34102774
0.028898343	-0.028196367	0.04498778	0.110167496	-0.14921084	0.07210273	-0.039079927	0.35073936	0.054834355	-0.10840635	-0.07099595	-0.027102543	-0.16348559	-0.11651694	-0.12857018	0.13850836
0.45141304	-0.22992918	0.05164318	0.6226967	-0.05498942	0.33346635	0.2336766	0.8246143	-0.3189186	-0.3899999	0.13867047	-0.37445107	-0.5974099	-0.5037409	0.20173633	-0.18098253
-1.1283207	1.0299213	0.91783583	0.3767567	1.360634	0.68397933	0.60234964	-1.0292897	-0.8050802	-0.6840899	0.39785674	0.66161513	0.19854605	0.90203077	0.60531867	-0.18321785
-0.18309124	0.10378318	0.06836764	-0.3642983	-0.30560002	-0.25237152	-0.25809342	0.17239131	0.3783871	0.16395113	-0.2397524	0.29427087	0.36439943	0.261607	-0.35570163	0.34946343
-0.10792893	0.20844345	0.027020017	-0.37967902	0.026889501	-0.14156191	-0.11870035	-0.33167142	0.069329485	0.2093073	0.22260883	0.23872378	0.42962313	0.35302663	0.06573985	0.1596368
0.24377418	0.15080181	0.09289291	-0.084224865	-0.18174796	0.097911626	0.16939086	-0.14034805	-0.14108433	-0.07033084	0.30283773	0.050165404	0.13801095	-0.030523622	0.10145406	-0.0667461
0.06590538	0.20535392	0.40908563	0.14161806	-0.7828044	0.36773577	0.27184492	0.92342615	0.060879406	-0.38288498	-0.025850486	0.24141563	0.03221044	-0.0207185	-0.15814222	0.10049733
-0.33924726	0.10419331	0.11256022	-0.7116712	-0.5622582	-0.4855248	-0.53158617	0.3358101	0.72175026	0.51200944	-0.5602992	0.53068364	0.65784043	0.5424266	-0.62702674	0.6598367
-0.0656711	0.56283784	0.6147598	0.56823945	-0.09388435	0.6728352	0.69182485	-0.08101323	-0.6189991	-0.6942026	0.5293417	0.12317637	-0.3465217	-0.21375817	0.4174572	-0.4244941
0.38309667	-0.3773832	-0.3112856	-0.000850524	0.25280344	-0.17332391	-0.18431713	0.020872734	0.01755359	0.14917299	0.100683704	-0.37984958	-0.19839235	-0.31039327	0.06083405	0.04636403
0.6543556	-0.16272485	-0.32709736	-0.48176476	-0.2952044	-0.25005168	-0.23587827	-0.5145339	0.024994362	0.48952487	0.5333754	-0.039131362	0.41250893	-0.0021457137	0.17397924	-0.054546308
0.14363672	0.03749939	0.075781755	0.731442	0.5961478	0.3988377	0.30142894	0.1657176	-0.5219948	-0.40669334	0.20806397	-0.37275732	-0.6680132	-0.5085023	0.3751042	-0.3788274
0.27491918	-0.37967244	-0.38262728	-0.7849662	-0.11259297	-0.78055674	-0.7417554	-0.15891168	0.67139614	0.8370984	-0.068125464	-0.070685595	0.5160124	0.1059008	-0.25710216	0.5622478
-0.32663506	0.27805105	0.19498006	-0.5507419	-0.48162034	-0.2762876	-0.25510234	0.36035538	0.64827096	0.19930477	-0.49709514	0.4691271	0.53401506	0.5085186	-0.5423862	0.5876746
0.7632942	-0.2650926	-0.20823562	-0.15071414	-0.27818674	-0.07502312	-0.07792865	-0.07390654	-0.13125248	0.22265254	0.48124263	-0.27874196	0.059497748	-0.28590894	0.3518176	-0.11140263
0.27966073	-0.46109822	-0.116843835	0.5206617	0.17989148	-0.08518822	-0.16348357	0.96888405	0.14756757	-0.03919392	-0.4298871	-0.49101976	-0.6272713	-0.47923404	-0.22624688	0.1747274
0.3602158	-0.093577065	-0.015554078	0.29768172	0.24145299	0.12546533	0.114022166	0.011842203	-0.35718885	-0.109483205	0.4383105	-0.4115041	-0.3537548	-0.4548938	0.3675489	-0.21851489
1.2441615	-0.85917073	-0.45907578	1.1123695	0.5636718	0.25934285	0.14054582	1.2696368	-0.49214417	-0.3303228	0.05349822	-1.1918033	-1.3504913	-1.2400727	0.35743055	-0.35758996
-0.09477766	0.068686135	0.096395075	-0.23553573	-0.37318665	-0.12668811	-0.22870766	0.14495477	0.2252948	0.20785205	-0.10574929	0.27292097	0.28903636	0.18618375	-0.27350882	0.27775678
0.42221466	-0.0457372	-0.098845944	-0.14364281	-0.12401144	-0.014692168	-0.044958476	-0.2704041	-0.1405789	0.16757879	0.44034186	-0.16146697	0.026645513	-0.22355627	0.25631005	-0.073266454
-0.18230398	0.070436954	0.0676882	0.50072706	0.66761553	0.22744648	0.12913767	0.18035541	-0.21175794	-0.2292095	-0.11463068	-0.15569468	-0.4229292	-0.18234035	0.08975435	-0.09373092
-0.4127072	0.5049147	0.68472445	0.25713778	-0.7971607	0.37717924	0.2765851	1.0937726	0.12550153	-0.50961816	-0.26607472	0.53327936	0.07777141	0.18323673	-0.44313172	0.26720506
0.45324513	0.20058778	0.29850048	0.47620445	-0.26806173	0.4901209	0.44143438	0.2394891	-0.46438628	-0.50920737	0.5700801	-0.11156174	-0.36682808	-0.45900837	0.39230615	-0.41325167
0.98204947	-0.38028276	-0.22240186	0.3597554	0.1858281	0.2126534	0.14139414	0.0048993467	-0.48943853	-0.10811429	0.7093115	-0.68617177	-0.61347574	-0.8934435	0.6650578	-0.42793605
1.510223	-0.27375346	0.29771438	1.3241274	-0.101656355	1.046926	1.0132612	1.0967445	-1.0126722	-1.1233588	0.9931569	-1.0669407	-1.2932185	-1.3668501	0.8328698	-0.9513078
-0.40886292	0.6238824	0.7006598	-0.21741386	-0.9101241	0.23061186	0.14746962	0.71551794	0.35673046	-0.2693797	-0.33458418	0.61108595	0.37175316	0.42767525	-0.4551186	0.34530696
0.25041145	-0.82684445	-0.73929614	0.7767585	0.8705831	-0.54319847	-0.5684446	1.1175756	0.623595	0.2632141	-1.0965313	-0.8375686	-1.1403778	-0.811483	-0.7995887	0.6244028
0.21113975	0.15454619	0.3546936	0.45775113	-0.36603066	0.49689165	0.39214864	0.38200197	-0.25591063	-0.502713	0.22566938	-0.09011521	-0.40932074	-0.34637988	0.11296466	-0.23012021
-0.010050571	-0.02895525	-0.097310424	-0.2290535	0.4923345	-0.12884162	-0.21196403	-0.21360356	-0.020775473	0.23579113	0.08463011	-0.14797719	0.122462705	0.013543064	0.13946281	0.12818754
0.3683336	0.1698107	-0.08930965	-0.7090415	-0.049352977	-0.21857086	-0.14152217	-0.8843717	-0.05655411	0.39995357	0.8308104	0.14380467	0.69542027	0.22943206	0.36873293	-0.15878984
1.4214797	-0.4811721	0.27558735	1.1305348	0.4229749	0.8925014	0.74646425	1.0128498	-0.9373295	-0.88808393	0.8188734	-1.2789088	-1.1796371	-1.1578734	0.6610947	-0.6782794
-0.37077668	0.43586513	0.5140321	-0.19932364	-0.8501777	0.01748761	-0.0713765	0.8801063	0.42466456	-0.09279911	-0.28411236	0.56391996	0.33084643	0.32735333	-0.45584148	0.38685623
0.4132717	-0.16479874	-0.27835417	-0.46996337	-0.1349734	-0.3392137	-0.32079393	-0.3761919	0.023013795	0.4177207	0.38437524	-0.0012021426	0.25681493	0.012235739	0.1266133	0.01226134
0.60110766	-0.9744379	-0.9040481	0.52630335	0.63435096	-0.7139128	-0.721076	1.1967847	0.7655457	0.5997459	-1.0257463	-0.8255573	-0.9122331	-0.893587	-0.6945516	0.6366204
-0.48951048	0.389622	0.3845564	-0.5448797	-1.0481536	-0.3296236	-0.2491838	1.0213997	0.8718854	0.083405465	-0.7655787	0.7536275	0.71927	0.6524884	-0.8669831	0.7628235
-0.008560537	-0.1754806	0.12040152	0.35274762	-0.21992622	-0.03437818	-0.07663667	0.75556767	0.15897949	-0.065923944	-0.290288	-0.1254813	-0.2580764	-0.23904946	-0.26306993	0.17948909
0.15486486	-0.5027636	-0.37274963	0.14348105	0.1958864	-0.39106813	-0.4282435	0.6525298	0.36311808	0.24035797	-0.5329138	-0.3480137	-0.38054737	-0.3092681	-0.41502425	0.46170178
-0.07324566	-0.13104866	0.034989353	-0.016128141	-0.20973864	-0.24851394	-0.29190817	0.6788173	0.3221731	0.12803051	-0.57904506	0.027840892	-0.03377868	0.06296335	-0.41205645	0.39435792
-0.015620437	0.23012535	0.051429983	-0.595503	-0.2585517	-0.19149026	-0.16454166	-0.44518954	0.2030627	0.25999874	0.20640557	0.35004205	0.5423994	0.3700788	-0.060090467	0.19954604
-0.32915783	0.5187345	0.35384852	-0.44962764	-0.52381223	-0.1283365	-0.12606138	-0.16582182	0.28969324	0.1826551	-0.023005323	0.57458276	0.55081284	0.4819674	-0.24332123	0.23144205
0.07304455	0.06589619	0.19239159	0.18348378	-0.21256854	0.13433613	0.08200656	0.4797107	0.030126948	-0.18536516	-0.07923483	0.05305395	-0.09818423	-0.13171016	-0.109607875	0.053386588
0.48311985	0.0007232799	0.0069321366	0.004517268	-0.3350158	0.17102155	0.14290522	-0.04875064	-0.1251033	0.0032197959	0.3949248	-0.07335576	0.0015653884	-0.19813804	0.28181294	-0.13970372
-0.235796	0.16822419	0.16755706	0.44844556	0.93503505	0.3046342	0.25492075	-0.31528956	-0.5664259	-0.3396553	0.31021184	-0.22049068	-0.45369345	-0.08645542	0.46385157	-0.3266027
0.69954896	-0.69912827	-0.65887326	0.09914027	0.4139798	-0.4304041	-0.4427597	0.32694894	0.17417224	0.50222677	-0.19383886	-0.67618704	-0.49982473	-0.72961557	-0.103113994	0.26754197
0.8368082	-0.22970846	-0.3017694	-0.31640714	-0.41259643	-0.07600283	-0.16646105	-0.4669399	-0.14936578	0.30037224	0.7741861	-0.24875836	0.17200418	-0.32493103	0.47239166	-0.27495494
-0.04599987	0.025678465	0.049078614	-0.020044431	-0.09268483	-0.11880823	-0.15139319	0.45574802	0.21771544	-0.012958636	-0.2811774	0.06311825	-0.041926306	0.061927542	-0.28159	0.23082896
-1.1873494	1.3039856	1.0595313	0.46369568	1.1663401	1.021275	0.9576974	-1.2611594	-1.1627184	-0.96149087	0.90937346	0.94324684	0.15823533	1.1016554	0.8248017	-0.5654545
0.4565623	0.025653314	0.05498978	0.1428308	-0.4122275	0.21237488	0.12206092	0.15057091	-0.13288075	-0.15896752	0.31629756	-0.058440134	-0.14972645	-0.27810812	0.1711777	-0.09635808
-0.28369266	0.55212116	0.5538521	-0.1886808	-0.98211735	0.1593735	0.20166163	0.75489634	0.3079	-0.27140647	-0.20217174	0.5701567	0.41742563	0.31419167	-0.429903	0.25543523
0.31488284	0.09454661	0.22831655	0.68456805	0.33503273	0.5302107	0.45185363	0.11696985	-0.63749236	-0.45542687	0.56909573	-0.42293778	-0.6560307	-0.64627725	0.6252443	-0.46837035
-0.23123455	0.11742893	0.15846582	0.09976892	-0.10092496	0.030214183	0.016872605	0.32030016	0.02005576	-0.08523687	-0.1588618	0.10600603	-0.0032761104	0.048260406	-0.11630999	0.18098857
-0.20175761	-0.25854793	-0.16588394	-0.10078473	-0.0906403	-0.50681466	-0.55254686	0.75922894	0.54383475	0.40852547	-0.6846939	-0.0684618	-0.02022269	-0.07097764	-0.51824397	0.64362687
-0.14369221	0.51159334	0.2818768	-0.504309	-0.27434582	0.0054510715	0.049033586	-0.5250855	0.011163392	0.2023187	0.45446238	0.4519518	0.62701887	0.46817392	0.12708703	0.068009146
1.3646847	-0.38569012	0.39055586	1.0815332	0.36487976	0.788875	0.6730772	0.9160986	-0.89467263	-0.78442556	0.83711714	-1.2007865	-1.1204367	-1.1359704	0.672019	-0.69386613
0.13808069	-0.17567778	-0.01355662	0.14860371	-0.5049334	-0.15948993	-0.20054518	1.0835088	0.30842084	-0.0040738387	-0.400995	0.017324194	-0.08748872	-0.10120643	-0.3401562	0.27995625
0.28069118	-0.27967504	-0.24724647	-0.2524348	-0.025626741	-0.3542321	-0.28595006	0.11591771	0.18344252	0.3679145	-0.103771225	-0.24143568	0.046998087	-0.10176709	-0.12727462	0.2105305
0.28380975	-0.038719647	-0.20370333	-0.4514744	-0.029570209	-0.23977815	-0.21910188	-0.39337718	0.12523074	0.31085518	0.26593122	0.01797397	0.3218895	0.08387763	0.11602641	0.07178976
0.19519801	-0.02231973	-0.082848325	-0.21307842	-0.18848477	-0.12653245	-0.16330078	-0.14721657	0.084529676	0.21007426	0.12885424	0.039041925	0.2130586	0.031197445	0.01823165	0.048474614
0.425613	-0.4659851	-0.30853832	0.43000904	0.45384875	-0.17237669	-0.2670128	0.5026889	-0.017657042	0.16832456	-0.15119381	-0.6430767	-0.5730681	-0.5963988	0.049653437	0.080109954
0.788977	-0.45861304	-0.6063668	-0.85679615	0.51955277	-0.63399315	-0.5640021	-1.0104489	-0.007651127	0.7943017	0.8673215	-0.5269368	0.5889499	-0.18760137	0.7529244	-0.054610927
0.34092554	-0.51393384	-0.44869602	0.18267784	0.6768556	-0.2763313	-0.27747965	0.29479405	0.08742309	0.28140217	-0.30296782	-0.5965401	-0.58811057	-0.6140959	-0.11151559	0.17126642
-0.7257039	0.7592991	0.617771	0.011726419	0.7858924	0.4515165	0.48877043	-0.83032084	-0.6662128	-0.37822393	0.6130737	0.49893603	0.17150657	0.4741136	0.5146462	-0.3008981
0.06532062	-0.09788052	0.035152644	0.42610103	0.28810397	0.16449456	0.045610745	0.35637036	-0.21867843	-0.13559271	0.06896519	-0.2471375	-0.43000624	-0.33568585	0.102227494	-0.0883072
0.035749037	0.1779704	0.11465962	-0.22269419	-0.10717325	0.03757786	0.023573937	-0.16354989	-0.04253961	0.038638655	0.21341063	0.14483422	0.3006212	0.17811418	0.042234436	0.03319342
0.12962586	0.4066573	0.32126215	0.27877313	-0.13025741	0.46323127	0.43741918	-0.19131705	-0.46379066	-0.39843914	0.57826704	0.07058661	-0.1312042	-0.23456381	0.3832883	-0.4184405
0.4592263	-0.51249313	-0.39212283	0.19173793	0.33611438	-0.23238294	-0.29570678	0.29714215	0.051477224	0.24748027	-0.120931305	-0.5353926	-0.43955448	-0.52630836	-0.06779328	0.11012608
-0.17108604	0.018945297	0.20804475	0.01234944	-0.3985882	-0.082533576	-0.08403078	0.45511195	0.34835783	0.02929469	-0.4045253	0.20121244	0.050074205	0.1665038	-0.425726	0.30735415
0.4706525	-0.3038664	-0.46741396	-0.7916713	0.39880225	-0.6109848	-0.6099552	-0.6895965	0.22119278	0.7599106	0.52281463	-0.31833312	0.5997011	0.004333454	0.445182	0.18287869
-0.44397742	0.6700294	0.5031462	-0.509739	-0.43798354	0.150987	0.17281131	-0.0786485	0.25044838	-0.08996819	0.047175508	0.67223346	0.62778676	0.6377509	-0.30435777	0.30962503
-0.40789175	0.55164295	0.3710297	-0.21626022	0.22570063	0.26272324	0.24240083	-0.36701	-0.17472334	-0.19006684	0.2251924	0.35381618	0.31193382	0.44884223	0.15907274	-0.08872088
-0.5466551	0.2991202	0.41583908	-0.1256671	-0.28464416	0.00077461207	-0.058239903	0.32005405	0.28582534	-0.050282456	-0.37998366	0.39976677	0.27302724	0.43483263	-0.4164885	0.36991003
-0.07491752	0.33728582	0.29453388	0.31330478	0.023376103	0.4306826	0.3745441	0.040552396	-0.3659078	-0.39349514	0.28220615	-0.01293404	-0.19541995	-0.19143772	0.2348508	-0.24414347
0.14663495	0.56902206	0.662099	0.7881548	0.58081305	0.9294205	0.81565565	-0.1897454	-0.9662187	-0.8611404	0.8498154	-0.3321351	-0.71906865	-0.6018757	0.8242209	-0.7245599
0.5900589	-0.33705148	-0.4043884	-0.45065913	0.12772143	-0.47093037	-0.4756707	-0.39360192	0.20672974	0.5373913	0.27144077	-0.33633137	0.26716572	-0.19151865	0.14143045	0.17622326
0.5962477	-0.27899212	-0.22863472	0.034383066	-0.11947571	0.02887207	-0.025062554	0.091564395	-0.17943053	0.05177286	0.31660792	-0.33147877	-0.15119368	-0.36320052	0.26387343	-0.09709008
0.8497822	-0.44998965	-0.30171183	0.3184727	0.15175429	0.105004825	0.08460273	0.008647608	-0.29348537	-0.028720548	0.42176166	-0.5495656	-0.4056296	-0.6471076	0.3978986	-0.26659048
0.22058317	-0.025467157	0.11033239	0.29476807	-0.14265102	0.27884108	0.23555501	0.21419331	-0.30365485	-0.3176811	0.3059001	-0.17783438	-0.3378575	-0.27989468	0.18641308	-0.2574013
0.12708668	-0.15789652	-0.005802413	-0.007889191	-0.20634697	-0.10783729	-0.17587763	0.26314515	0.13499863	0.12177875	-0.055721033	-0.008082058	-0.0046223463	-0.09482428	-0.11045973	0.13399036
-1.6531758	1.6620855	1.5230498	0.43523654	1.5737212	1.1306828	1.131016	-1.6989043	-1.3411919	-1.1571475	1.1907495	1.5337939	0.42075443	1.6400026	0.98211884	-0.48174965
-0.12686454	0.22322373	0.32076356	-0.16645107	-1.0120645	-0.038383313	-0.12658632	1.3182862	0.40664688	-0.022070147	-0.35662127	0.5266148	0.24886358	0.2467434	-0.46697873	0.3923797
0.29058954	0.0794962	0.113166064	0.060520012	-0.35918528	0.26259866	0.1783675	0.03477492	-0.100208536	-0.19778936	0.32598415	0.0036387707	-0.003848768	-0.18129584	0.13684866	-0.080001645
1.0601089	-1.3618846	-1.2525433	1.019223	1.0831859	-1.1471195	-1.1045775	1.3913971	1.4029775	1.039379	-1.4596131	-1.1677421	-1.4519385	-1.3627946	-1.4209709	1.1264002
0.10561621	-0.09757571	-0.14012292	0.029097842	0.14971006	-0.1213298	-0.18106094	0.003385808	-0.05401243	0.19215204	-0.0017209182	-0.1349049	-0.1303921	-0.10757383	0.0015070075	0.09713044
-0.031248517	-0.61829734	-0.5479142	0.6258634	1.0691904	-0.4854416	-0.56563616	0.7557893	0.5725752	0.3953026	-1.0148972	-0.638092	-0.86384517	-0.61286193	-0.71389854	0.5468042
-0.48771656	0.7665885	0.42711926	-0.37901503	0.7194801	0.49708873	0.45023927	-1.1365507	-0.619483	-0.2615204	0.81143606	0.38971865	0.48824233	0.64680874	0.5520974	-0.44703826
0.2602416	-0.032767724	0.03402226	0.08707953	-0.07759181	0.041955262	0.015891049	0.21161473	-0.08753432	0.01507283	0.12915218	-0.09783861	-0.09011332	-0.1849828	-0.008982535	0.08496446
-0.17130153	0.4944288	0.261851	-0.05249719	0.31664687	0.2851319	0.28880695	-0.56569725	-0.37150607	-0.2121476	0.5009007	0.22400665	0.23495178	0.2201795	0.33848912	-0.2900412
0.07911209	0.19189385	0.19533181	0.1759454	0.25369692	0.36578706	0.30536762	-0.10014215	-0.4087301	-0.28818792	0.38892567	-0.114025325	-0.19707383	-0.13517448	0.34997922	-0.2349186
0.23746045	-0.77401793	-0.65195006	0.62325287	0.72295403	-0.56527984	-0.6500256	1.0347939	0.701246	0.5067071	-1.0348948	-0.6722047	-0.9023393	-0.66780645	-0.922041	0.7434432
0.36812398	0.30551386	0.5052721	0.49120286	-0.49579638	0.46452865	0.42598724	0.926428	-0.2627861	-0.54710925	0.25231943	-0.021603927	-0.3541519	-0.31446677	0.15043455	-0.2670807
0.345108	-0.5179956	-0.3529111	0.58157265	0.7181115	-0.14471494	-0.18032204	0.58968604	-0.035770085	0.05501238	-0.32405633	-0.6475873	-0.800295	-0.6441269	-0.07429143	0.046366893
-0.15362577	0.22199702	0.07496332	-0.4075933	0.056114025	-0.06968732	-0.124828584	-0.42761406	0.1206318	0.18120393	0.09963058	0.1994016	0.42132574	0.29114106	0.020073662	0.11683566
-0.22185732	0.64521724	0.565859	0.48919022	0.8259199	0.72872573	0.687549	-0.6815082	-0.9023832	-0.6233418	0.92490804	-0.07926367	-0.3787641	-0.11760075	0.80558217	-0.69552326
0.11576402	-0.024053935	-0.074895896	-0.2927871	-0.08067646	-0.15688333	-0.19627453	-0.12838335	0.1917556	0.1827021	0.022148037	-0.003265029	0.15925041	0.095331565	-0.08399007	0.19046798
0.2228352	0.042992584	-0.21521349	-0.45109844	0.38865343	-0.2435725	-0.22658238	-0.59380686	-0.16199124	0.29400253	0.52581847	-0.110115655	0.34488934	0.077098705	0.39931914	-0.14310311
-0.16448686	0.051861744	0.2174306	0.1284043	-0.44390124	-0.10219218	-0.095779695	1.0759383	0.2577632	-0.06082844	-0.44874752	0.08247036	-0.080805026	-0.046164386	-0.3597863	0.2575359
-0.3244449	0.38674933	0.4364654	-0.24355401	-1.0233461	0.017231926	-0.11047765	0.99716455	0.5505636	-0.18421642	-0.45755708	0.55767125	0.41696766	0.40017894	-0.5836596	0.49519077
0.17153724	-0.119950786	-0.044052783	0.19557217	0.318253	0.097119816	0.0739493	0.108403414	-0.09455118	-0.058098145	-0.030922169	-0.2674027	-0.2674773	-0.22570425	0.10039668	-0.022700904
0.45395976	-0.32568914	-0.25233194	-0.34770316	-0.3354692	-0.49286443	-0.5125826	0.09125596	0.42823887	0.49125382	0.0035019205	-0.03967565	0.21235444	-0.070062764	-0.18964179	0.3449984
0.70046324	-1.0837402	-0.96642864	0.61938494	1.2250222	-0.7421691	-0.7851661	0.8470752	0.69791514	0.6981253	-0.9200945	-1.0647616	-1.2129683	-1.2206837	-0.6401592	0.65424395
-1.0013832	0.853099	0.76585805	-0.6189399	-0.68747324	-0.0030544824	-0.004001508	0.60765207	0.67404884	-0.22439855	-0.6606695	0.8342824	0.8566949	0.87310106	-0.72291607	0.72050256
0.31546932	-0.27718425	-0.22022507	-0.036056317	0.10565005	-0.292742	-0.25928792	0.22823802	0.093992144	0.25202107	-0.035495505	-0.29572952	-0.17772818	-0.29309216	-0.05510696	0.161632
-0.06126661	0.088855945	0.0035243067	-0.041810326	0.6222748	0.10540008	0.13559376	-0.30690095	-0.2761584	-0.116054624	0.15782335	-0.04854762	-0.06711683	-0.0024263326	0.18543519	-0.16139637
0.061652374	-0.2100336	-0.1635104	-0.021907214	0.6054874	-0.18611978	-0.20660408	0.023018308	0.04899898	0.1670349	-0.123895556	-0.257623	-0.16097364	-0.12064622	0.023103323	0.08402555
-0.2392772	0.02215281	0.14352241	0.45667842	0.5565462	0.061548997	0.024634894	0.4129552	-0.06513138	-0.18144555	-0.3973355	-0.18151559	-0.3623739	-0.101330414	-0.18833128	0.19079162
-0.27289838	0.24337593	0.36812547	0.2749715	-0.16238953	0.22536336	0.18888149	0.6176764	-0.05844043	-0.3606325	-0.17890038	0.12265025	-0.14387527	0.07333572	-0.2167615	0.059324652
0.3069335	-0.27070177	-0.26604894	-0.2452815	-0.18729928	-0.41787788	-0.44235614	0.051629122	0.36214384	0.4370382	-0.090037026	-0.12540492	0.18809342	-0.08364316	-0.1763274	0.30673033
-0.16685492	0.10640861	0.15354894	-0.11997014	-0.15313475	-0.09176536	-0.15844604	0.22529331	0.22471519	0.10119141	-0.2000258	0.22250026	0.14285141	0.20381977	-0.180288	0.26228607
-0.21855031	0.24142875	0.40264353	-0.15396303	-0.98515373	-0.0603086	-0.07553127	1.0246825	0.44892138	-0.1752878	-0.4693504	0.46008527	0.302991	0.29425424	-0.5050973	0.47211584
-0.35603738	0.23854326	0.14771703	-0.113735326	0.19550899	-0.049691476	-0.024691928	-0.151963	0.086770296	0.027752962	-0.10952831	0.14279479	0.18896422	0.21348484	-0.14818075	0.2466356
0.3534525	-0.6456635	-0.6165857	0.34013182	0.37699568	-0.44824985	-0.53002787	0.8343897	0.47723246	0.3607834	-0.78024495	-0.60511625	-0.64741784	-0.500736	-0.5093876	0.48997998
0.9180508	-1.1590123	-1.0856501	0.8625216	0.9427428	-0.93150735	-0.89202875	1.2483708	1.1802932	0.7608517	-1.2491342	-0.9817092	-1.260753	-1.1337488	-1.144866	0.9002363
-0.04311186	0.060774423	0.16884528	0.06469543	-0.40462595	-0.10444921	-0.10616124	0.62967116	0.21785176	-0.018143287	-0.2654428	0.12029884	0.008912343	0.087809935	-0.26454726	0.22517401
0.20012905	-0.093709186	-0.012441581	0.3660037	0.11364371	0.073864445	0.08608187	0.30361283	-0.19346917	-0.14722717	0.10453086	-0.27461514	-0.3908865	-0.31595573	0.13841067	-0.099578075
0.15648524	0.090756305	0.20784186	0.031457912	-0.40346476	0.15454026	0.061288457	0.3419802	0.035601895	-0.1895094	0.07090838	0.073499255	0.023951076	-0.04268037	-0.030291118	0.010348044
0.8584401	-0.7007769	-0.7650898	-0.92606884	0.2399608	-0.9015791	-0.8901988	-0.8114279	0.5894759	0.9454376	0.86622167	-0.56396604	0.8777754	-0.15517032	0.6319187	0.14198129
0.1389165	-0.08309882	0.114424974	0.2667949	-0.19904107	-0.0011446156	-0.011833171	0.62420356	0.06645312	-0.06002826	-0.11324235	-0.0029516364	-0.25086063	-0.20869735	-0.18358968	0.14696133
0.7318124	-0.9038828	-0.8424513	-0.014845911	1.0590818	-0.73913497	-0.71543133	0.22211613	0.43444774	0.7276952	-0.43093538	-0.93471074	-0.60633224	-0.9160759	-0.0915156	0.36553338
0.41367745	-0.10151462	-0.08264223	-0.009500666	-0.1701679	-0.019597106	-0.0145178465	0.09783685	-0.078777656	0.09837649	0.24502948	-0.122333206	-0.06909902	-0.22914499	0.10787939	-0.037403625
0.051314462	-0.033916954	0.023993084	-0.14894404	-0.17542233	-0.12546751	-0.062026497	0.013582392	0.15687847	0.13055685	0.03961505	0.015165608	0.18800147	0.039366618	-0.060856193	0.12313976
0.50999063	-0.70186955	-0.67699295	-0.20861739	0.55556244	-0.79261273	-0.74568194	0.36876118	0.7377992	0.8261519	-0.63181525	-0.5755334	-0.32111183	-0.4430611	-0.4824771	0.67832726
0.338192	-0.116109215	-0.2913074	-0.6213191	-0.13876702	-0.4140856	-0.45185423	-0.59021586	0.21691546	0.4792994	0.28959313	0.019676136	0.45454	0.06368167	0.13080293	0.23278607
0.3086483	-0.32680902	-0.17826788	0.5934632	0.38862458	0.06957482	-0.08519122	0.6001562	-0.12703426	-0.14094125	-0.14477101	-0.46410152	-0.63896674	-0.54850245	-0.074724995	0.037154403
0.27654108	-0.13942859	-0.11186908	-0.18028995	-0.2410184	-0.13116059	-0.18260993	0.12594986	0.22909465	0.21981603	-0.039728165	0.025899846	0.18403466	-0.036131755	-0.10859021	0.16287775
0.3695189	-0.14952743	-0.18172349	-0.43588254	0.16061725	-0.28025204	-0.20535208	-0.47161654	-0.09321938	0.4259133	0.36085337	-0.106491715	0.28909785	-0.05020419	0.267776	-0.055102266
-1.3562566	1.4640472	1.4555314	0.27661917	1.2693713	0.9265691	0.85835993	-1.4321636	-0.97606915	-0.99458504	0.73341674	1.2578169	0.44388545	1.2861576	0.65241504	-0.24802315
-0.11447801	0.27235416	0.32165387	0.07255823	-0.07281797	0.2581855	0.22748655	-0.0688172	-0.20265658	-0.21792935	0.18702689	0.23137337	0.03389602	0.015047467	0.057675555	-0.053411175
-0.25903678	0.28960457	0.31380323	-0.436199	-0.756617	-0.07640989	-0.0952377	0.41187617	0.44171783	-0.0044751964	-0.35660776	0.4974429	0.4727508	0.44469604	-0.45942807	0.39724374
-0.070116825	0.47162813	0.5368724	0.35181975	-0.28578255	0.54784864	0.4928822	0.28719285	-0.37410182	-0.5000072	0.37875438	0.18394132	-0.19211246	-0.16689622	0.17751272	-0.28555155
-0.44472873	0.501308	0.49144727	-0.4736589	-0.7386543	-0.063662246	-0.039948814	0.45744815	0.52471495	-0.03178097	-0.37858257	0.6085022	0.6340342	0.51906246	-0.5046869	0.46877345
0.19249363	-0.45333034	-0.32439792	0.19745272	0.20279434	-0.43766612	-0.44460407	0.7348039	0.39378026	0.30337343	-0.55119705	-0.40096313	-0.4169539	-0.28849858	-0.3952895	0.4284903
0.19641155	-0.1993361	-0.11330916	0.20661394	0.061967947	-0.11699184	-0.16256449	0.39232057	0.009527762	0.033079706	-0.13297628	-0.3223431	-0.3110296	-0.35579064	-0.02421279	0.034065578
-0.2039411	-0.042803194	0.0022389495	-0.12917596	-0.2865975	-0.16465431	-0.2064985	0.45057437	0.36560035	0.115551665	-0.43927398	0.17182775	0.07792717	0.16957875	-0.50396395	0.4029766
0.818454	-0.64830434	-0.4301856	0.5015865	0.18122363	-0.08492918	-0.20550084	0.59322965	-0.10949397	0.11414443	0.0533638	-0.72669864	-0.64404917	-0.713636	0.085280225	-0.0616142
0.43566504	-0.02356976	-0.03986379	0.09694913	-0.012467924	0.24641852	0.17661163	-0.11974206	-0.33217087	-0.108373314	0.4843205	-0.22083719	-0.20388493	-0.30336314	0.3463505	-0.25290173
0.52287555	-0.34226996	-0.10333187	0.32998666	-0.48277205	0.0087982975	-0.030091776	0.80412036	-0.0017575062	-0.057812594	-0.007873289	-0.24234545	-0.28986534	-0.40580335	-0.048141867	0.016812231
0.5428611	0.22964592	0.6154123	0.74927497	0.051079627	0.7153683	0.572497	0.53396994	-0.69576555	-0.69094634	0.6523664	-0.4466275	-0.70816	-0.64082843	0.45737416	-0.51671237
0.24506015	0.14074057	0.343303	0.44865265	-0.44128406	0.47117952	0.41648307	0.7506661	-0.2462755	-0.53983825	0.1538899	-0.023108592	-0.30132937	-0.30223554	0.0846923	-0.1705698
0.057936195	0.20236558	0.10721659	-0.3296129	-0.3121555	-0.05144385	0.0060800156	-0.14556177	0.10359138	0.10359053	0.28366676	0.21486162	0.3784057	0.23878708	-0.03228891	0.13432036
-0.20328918	0.5607091	0.5743135	0.6178189	0.12566233	0.69182384	0.58804023	0.10374983	-0.50525844	-0.7511072	0.41046292	0.042731937	-0.3881403	-0.16434972	0.32738528	-0.29319936
0.7447216	-1.0375596	-1.0407223	0.45662403	0.73202455	-0.96229416	-0.91311103	0.990161	1.1152627	0.8435418	-1.1313603	-0.91514874	-1.0436325	-0.942066	-1.1270509	0.86504364
0.21824741	-0.09762086	-0.06523497	-0.20377833	-0.33866987	-0.24635947	-0.26479045	0.08977876	0.19489034	0.28449407	0.032415777	0.027365435	0.14458923	-0.037605733	-0.052756578	0.1440794
-0.021052038	0.54469156	0.1821279	-0.38865831	0.9803825	0.3809053	0.39202255	-1.2247341	-0.8495201	-0.057710018	1.226789	0.10824854	0.38408712	0.27567118	1.129171	-0.64227784
0.14416753	-0.17411873	-0.12243735	-0.124041356	0.013502654	-0.23939277	-0.21673398	0.045394458	0.1532901	0.27749512	-0.080977924	-0.0877094	0.04504582	-0.061894942	-0.05270268	0.21281384
0.05232847	0.26594877	0.14145656	-0.32699355	-0.22546628	0.057697795	0.038936723	-0.21104993	0.043048434	0.049021892	0.24987482	0.19722876	0.37551072	0.2515098	-0.015699513	0.06836767
-0.6208349	0.31923473	0.3180648	-0.83359826	-1.055671	-0.6455767	-0.62744915	0.92663836	1.0471749	0.3418737	-0.8722492	0.76238096	0.83001935	0.7071683	-0.9333421	0.82321453
0.91365397	-0.5785476	-0.6550945	-1.0911676	0.7501899	-0.84602314	-0.81481194	-1.0622292	-0.066790186	1.0274444	1.2747076	-0.717361	1.0162572	-0.18075582	1.1638422	-0.41211098
-0.2873643	0.2894411	0.40135795	0.59315926	0.3057461	0.40885675	0.361462	0.2943274	-0.34641328	-0.51289165	0.025919456	-0.014606274	-0.44750455	-0.14546622	0.15739186	-0.17092046
0.62579286	-0.46195495	-0.3715935	0.21029076	-0.06748787	-0.06364	-0.089210704	0.3295254	-0.05697189	0.044382766	0.116810456	-0.40514126	-0.2919284	-0.38786146	0.14474823	-0.08999165
-0.0443816	-0.3587404	-0.2471925	0.008871456	0.43404067	-0.3548448	-0.36644396	0.3617089	0.38257843	0.22743568	-0.57487327	-0.2730106	-0.24433981	-0.063705206	-0.4758182	0.42112884
0.15307647	-0.03591898	-0.068261884	-0.302774	-0.054250877	-0.17998946	-0.118918255	-0.076292336	0.08227535	0.22476268	0.07087377	-0.010062083	0.20866291	0.058237184	0.0029070945	0.16369726
0.80742	-0.44888648	-0.44776964	-0.04824511	0.23813412	-0.11729179	-0.14802873	-0.24967033	-0.19688338	0.23277631	0.50299597	-0.5635073	-0.16318984	-0.5465369	0.49356368	-0.24363093
0.3154525	-0.04432597	0.017926611	0.23085062	0.03797256	0.17150524	0.13100593	0.1787324	-0.20498131	-0.15225992	0.19203074	-0.21298057	-0.3027375	-0.28943342	0.15525587	-0.12827414
0.30733585	0.0006354891	-0.27851054	-0.7527714	0.33151856	-0.19169363	-0.20350921	-1.0331825	-0.16524473	0.4528396	0.85230464	0.009519636	0.80097216	0.3529829	0.56745416	-0.28618813
-0.11445685	0.36137423	0.27705857	-0.48289	-0.73616326	-0.05103798	-0.09506482	0.1971576	0.33302054	0.06371301	-0.08362978	0.43328038	0.5104818	0.3436894	-0.34356153	0.29769948
-0.15931088	0.08692786	-0.120111525	-0.41716495	0.93741614	-0.14561482	-0.12326147	-0.6869923	-0.21705753	0.2930332	0.3121891	-0.15211397	0.29880255	0.22746885	0.51967424	-0.1125165
-0.38618448	0.29180288	0.3898823	-0.4026809	-0.894606	-0.21094538	-0.27477053	0.8801613	0.709558	-0.019842308	-0.61533177	0.5106328	0.51815695	0.4502767	-0.62236184	0.5739886
-0.82457685	0.7865384	0.71285427	-0.5334305	-1.0098693	-0.013372188	-0.081361935	0.85302967	0.752136	-0.22966497	-0.70980173	0.85956025	0.7730475	0.8353915	-0.75384915	0.69298774
0.6546178	-0.31099084	-0.51974154	-1.102315	0.350555	-0.8188618	-0.76263744	-1.0219619	0.29459608	0.935461	1.0690548	-0.2933866	1.1107668	0.22191107	0.760256	-0.025953332
-0.24234425	0.16393273	0.26925653	-0.16740388	-0.701203	-0.13989119	-0.1947033	0.4990534	0.54864836	0.038592037	-0.5198244	0.4771808	0.40386024	0.32814926	-0.52814204	0.47764388
-0.34345353	0.4398852	0.49323726	0.06900283	-0.20618217	0.27234247	0.21489212	0.3901688	0.008512349	-0.39593056	-0.087933354	0.23735426	0.08755016	0.21125686	-0.08761774	0.03796484
-0.45461336	0.30956987	0.45030072	-0.13267682	-0.50714386	0.022598298	0.0024608446	0.6739036	0.31452176	-0.19238862	-0.45338953	0.41829902	0.27370858	0.308946	-0.4580423	0.3004197
-0.12965839	0.423847	0.34940678	-0.29543155	-0.5182217	0.067920946	0.026740935	0.21134068	0.14334895	0.025496293	0.043090206	0.41267458	0.37541848	0.24890934	-0.1588553	0.26448208
0.19690736	-0.18848166	-0.13113913	0.32044268	0.445102	-0.07289353	-0.13426982	0.23671634	-0.029712638	0.09275796	-0.11654217	-0.34680513	-0.34103313	-0.34242263	0.0328041	0.07567727
0.6116778	0.18788965	0.402412	0.90748227	0.4516319	0.876299	0.81363285	0.18640622	-0.92996424	-0.8644519	0.89225036	-0.61990863	-0.89983416	-0.8109469	0.86457676	-0.8269536
0.004328383	-0.425873	-0.37894937	0.32432258	0.98002386	-0.4346333	-0.39853063	0.42524108	0.36907917	0.2857103	-0.7159541	-0.5074439	-0.64957047	-0.4699038	-0.48432	0.5438077
0.08539653	-0.5235813	-0.34148696	0.42764932	0.8105266	-0.29281998	-0.42635566	0.5240515	0.3005914	0.22520068	-0.538937	-0.6303517	-0.66541153	-0.5448079	-0.29925478	0.3533505
-0.27149153	-0.2715457	-0.17642257	0.817315	1.0831257	-0.052034188	-0.1348269	0.5600147	-0.079121485	-0.073613234	-0.58601075	-0.4879603	-0.9021825	-0.42110506	-0.22571924	0.17155118
-0.42250106	0.45725432	0.5589753	0.1552313	-0.31707484	0.31819457	0.34290606	0.17526744	-0.09937949	-0.38837573	0.038042862	0.4179831	0.080828235	0.22095026	-0.11097266	-0.030558065
0.21368147	-0.34267807	-0.27601126	0.2984662	0.47199693	-0.10305413	-0.11487338	0.38507715	-0.07408703	0.062302463	-0.19028626	-0.47027194	-0.5734967	-0.44741493	-0.010237169	0.023983562
0.16496825	-0.21103273	-0.036220793	0.15533575	-0.15336289	-0.14780948	-0.1656088	0.51380473	0.1821341	0.15115996	-0.22332342	-0.10293433	-0.19068596	-0.16497815	-0.20845024	0.13932115
0.37356892	-0.22012089	-0.20313175	-0.2232828	0.04762764	-0.14746253	-0.1199577	-0.24677372	0.022637988	0.22220756	0.17482468	-0.17435713	0.12821992	-0.09878893	0.07091175	-0.02645515
0.46474877	-0.3270394	-0.28605	-0.11336359	0.17694922	-0.18897618	-0.1224435	-0.19346556	-0.052646838	0.22078447	0.18130016	-0.36029366	-0.05148075	-0.29318017	0.2219662	-0.062280722
-0.41864145	0.3132587	0.39006016	0.18639119	-0.12492098	0.23964643	0.21212237	0.51306486	-0.024754563	-0.3210045	-0.24004441	0.11222227	-0.06098773	0.11408523	-0.21754129	0.13771543
0.67096335	-0.7231396	-0.57589006	0.39599013	0.43478224	-0.34405503	-0.35521597	0.5984308	0.11283512	0.2502525	-0.29297328	-0.80341816	-0.6366787	-0.71375024	-0.036539473	0.14978537
0.3050894	-0.21763168	-0.24044144	-0.83534926	-0.33663404	-0.60696167	-0.5983539	-0.25140345	0.40716648	0.6156066	0.15018588	0.117920995	0.6516272	0.20277274	-0.07793203	0.3122243
-0.10950569	0.096562	0.15818231	0.42248598	0.6276016	0.31093866	0.23106648	-0.00088594086	-0.42101115	-0.3848437	0.12945648	-0.25035173	-0.3810513	-0.2310642	0.29354852	-0.23879912
0.1873945	0.6086047	0.9029765	0.95472646	0.26030278	0.9694851	0.8888371	0.36500865	-0.9390653	-1.0345794	0.76184696	-0.2236764	-0.80359524	-0.6135934	0.6421182	-0.72007525
0.12671329	0.04951857	0.034235634	-0.46973038	-0.414359	-0.25312904	-0.24521922	-0.020294886	0.3179281	0.25279325	0.048601378	0.2673742	0.40699324	0.20652357	-0.1659074	0.2543593
0.5863325	-0.3465834	-0.27423486	-0.1166588	-0.49006605	-0.24744144	-0.16835466	0.045961585	0.11354815	0.25316462	0.2156765	-0.063731216	0.14241593	-0.17972474	0.04162671	0.05345093
0.97957075	0.21938746	0.6927184	1.179144	0.12528567	1.1682599	1.0055641	0.76781124	-1.043563	-1.1114508	0.9585706	-0.7753185	-1.0875552	-1.0517571	0.8836841	-0.9155689
0.5550541	-0.33807942	-0.20841575	-0.16518508	-0.17727393	-0.19590473	-0.23902528	-0.00021394226	0.007678701	0.34611398	0.20931114	-0.17128143	0.07954894	-0.26500314	0.10598105	-0.016193546
0.06979424	-0.34956104	-0.32123372	0.19348034	0.6329846	-0.28767267	-0.34382045	0.30919677	0.27727872	0.19750205	-0.47414452	-0.37372142	-0.41201112	-0.4206098	-0.28192016	0.35686177
-0.11846331	0.52741134	0.4709988	0.38111216	0.6055295	0.53377557	0.54694206	-0.3524524	-0.7584271	-0.531354	0.76947653	0.08495723	-0.21815781	-0.15047763	0.6263667	-0.45661598
-0.04788784	0.12838627	-0.0032247761	-0.519859	-0.30708578	-0.26142326	-0.27083698	-0.12813154	0.31069192	0.31275493	-0.031720776	0.29371607	0.5663627	0.34248325	-0.14868669	0.27906725
-1.0018799	1.0892414	0.8909198	0.32867578	0.99406785	0.742243	0.69650805	-1.0144223	-0.8801234	-0.7342463	0.8655083	0.9662812	0.18248409	1.031554	0.7161384	-0.459659
0.2942087	0.033829145	0.17393184	0.2816878	-0.20713995	0.26920334	0.20240678	0.36535463	-0.19645502	-0.21420196	0.18845141	-0.15515257	-0.29299226	-0.31123564	0.16321874	-0.13717584
0.24010912	0.13713877	0.07620142	-0.15473168	0.15103109	0.17438054	0.20459835	-0.48249915	-0.27140167	-0.01892452	0.54716766	-0.022814594	0.08048531	-0.034313045	0.41547817	-0.26600134
0.01140059	0.22202635	0.043578167	-0.25477958	-0.006771068	0.08790249	0.08140361	-0.35817528	-0.14734815	-0.0029286125	0.3218967	0.21375439	0.3067952	0.16468377	0.16637047	-0.1095727
-0.53094375	0.4584132	0.55854666	0.28712675	0.055654313	0.41381902	0.32422754	0.39816537	-0.1708979	-0.47777325	-0.12820429	0.3160209	-0.11136732	0.18391758	-0.15981226	0.04099346
1.0361205	-0.3723462	-0.2371309	0.7821782	0.48537937	0.5401971	0.5025132	0.17106155	-0.7205465	-0.34949216	0.75189644	-0.97684747	-0.86085796	-0.9686455	0.8044548	-0.71158457
-0.008446738	-0.23987123	-0.20000064	-0.2523153	0.29856268	-0.37110713	-0.40819314	-0.07280094	0.3212269	0.3603599	-0.22845021	-0.1497298	0.0897562	0.049813338	-0.18456407	0.28270307
1.0411628	-0.59371513	-0.7173354	-1.1902108	0.5903101	-0.9650682	-1.0104599	-1.0984778	0.052519295	1.0808638	1.2908466	-0.68808115	1.0968181	-0.15649068	1.003317	-0.2556117
0.23087175	-0.5323842	-0.51393235	-0.07303878	0.41426444	-0.65429324	-0.6671286	0.5272181	0.68058014	0.63912386	-0.7207721	-0.41827196	-0.3284977	-0.35702467	-0.57555515	0.63171375
0.1463309	-0.22722317	-0.16326639	-0.3162523	-0.38877153	-0.3707863	-0.4011479	0.24271335	0.5165535	0.32758	-0.34575054	0.05826134	0.24013512	0.07622671	-0.359826	0.37799832
-0.60559934	0.31359717	0.2832984	0.18154651	0.42826685	0.20901102	0.23218724	-0.09950145	-0.21321347	-0.28739956	-0.07763756	0.21758273	-0.03770786	0.37867817	-0.020091146	0.01426866
0.092009366	0.116290584	0.239401	0.37667075	0.037658308	0.31172	0.24861456	0.16076915	-0.31106237	-0.28791133	0.18775587	-0.028635735	-0.24915886	-0.17160746	0.17106324	-0.2062963
-0.09898454	0.11949025	0.22797637	0.08394853	-0.32931864	0.05489554	0.021740697	0.42387044	0.07766033	-0.15058401	-0.16315895	0.13929224	0.007907295	0.07311276	-0.22798228	0.18185866
-0.17144914	0.4515923	0.15989543	-0.4655699	0.838201	0.20629565	0.21405955	-1.0554544	-0.6127977	-0.012509681	1.001352	0.2711166	0.6847132	0.5576799	0.8733436	-0.40618297
-0.14900632	0.16376832	0.22793892	0.013059073	-0.24217576	0.07911871	0.024735192	0.3623387	0.18373695	-0.10743525	-0.20347813	0.29082182	0.106606565	0.1878932	-0.27510837	0.23790704
0.08314157	0.16167066	0.39721063	1.0652981	0.73799944	0.64583725	0.61154133	0.47578585	-0.7777207	-0.7196559	0.37721592	-0.5121844	-0.97160226	-0.74047005	0.57508934	-0.5744168
0.5365201	-0.14464357	-0.27023187	-0.81540793	0.4876924	-0.36011258	-0.357251	-0.8957047	-0.33526048	0.5328141	1.0431646	-0.2230412	0.84287477	0.09696409	0.88514125	-0.28884718
0.43897977	-0.40977937	-0.44589904	-0.42271802	0.041441854	-0.532291	-0.5280725	-0.12593628	0.34128064	0.5944044	-0.02071874	-0.29697978	0.18006386	-0.077552654	-0.12752901	0.32882297
-1.053163	1.0081491	0.81225383	-0.39870894	-0.5904791	0.21581246	0.21092747	0.4564904	0.4384648	-0.42822996	-0.63559127	0.8956255	0.7052991	0.89903814	-0.63864976	0.4650706
-0.74726605	0.6335146	0.4668483	-0.1032781	1.242739	0.3350715	0.33747333	-0.9353749	-0.59303635	-0.21034522	0.45019716	0.40915784	0.3172418	0.74341166	0.6556848	-0.19022821
0.04566637	0.06946459	0.12322472	-0.13359709	-0.53569216	-0.028794054	-0.104224965	0.37341437	0.25231868	0.04770152	-0.07858839	0.19705294	0.14196832	0.030477243	-0.15928851	0.22312288
0.41329062	-0.13623665	-0.09996308	-0.0027643694	-0.6939526	0.0633426	-0.035695646	0.58737636	0.10511356	-0.031759024	0.06552423	0.09295149	0.032653704	-0.11573191	-0.11803868	0.09311803
0.19296148	0.20876454	0.16757879	-0.24269284	-0.5898933	0.06196933	-0.0015146865	0.044393368	0.11708856	0.09384997	0.18790132	0.24206154	0.39068186	0.058225766	-0.062245455	0.133556
0.23501803	0.29135957	0.4151437	0.7225579	0.5974709	0.70432967	0.6602979	0.07953889	-0.8065703	-0.62897706	0.6079115	-0.41805306	-0.6749309	-0.61606663	0.6415747	-0.6091941
-0.30162972	0.3291681	0.37575972	-0.22652154	-0.8424123	0.040774148	-0.056985777	0.7475915	0.4149401	-0.19148526	-0.28631616	0.49115396	0.3526056	0.2711376	-0.48373237	0.37507817
0.5845168	-0.7886515	-0.75504065	0.44499674	0.82531494	-0.49605104	-0.5619972	0.70798534	0.44821408	0.39701504	-0.6612449	-0.79364866	-0.9492361	-0.9044329	-0.45763326	0.4223461
0.34904978	0.015606922	-0.066900514	0.15620586	0.47770053	0.28558615	0.27106023	-0.36497912	-0.4867408	-0.15821902	0.6424389	-0.30801824	-0.19339557	-0.36773318	0.61905164	-0.30912733
0.006174589	0.24623965	0.23741058	0.16364461	-0.012135543	0.3282858	0.2530171	-0.06837245	-0.21173914	-0.23124202	0.35004604	0.07592755	-0.014991563	-0.04445811	0.21997744	-0.21949996
-0.3614377	0.034654878	0.21333928	0.13129449	-0.098808475	-0.035326943	-0.10334233	0.4909166	0.30434778	-0.13781412	-0.45377266	0.12851648	-0.016974159	0.19950439	-0.3651791	0.3085378
0.88876873	-0.15633643	0.2748734	0.84388864	0.05234447	0.6674463	0.5880062	0.7244043	-0.6484583	-0.7047761	0.57388365	-0.68680274	-0.7928346	-0.8046393	0.52030313	-0.56933254
-0.04798573	-0.010254628	0.072691336	0.34957695	0.5349709	0.114734925	0.159874	-0.040647537	-0.3141866	-0.19557767	0.0943508	-0.18271606	-0.3472484	-0.27815193	0.26947823	-0.21618982
-1.32521	1.4489299	1.3515468	0.6685486	1.308813	1.084363	0.9562325	-1.5350816	-1.1560771	-1.0450882	1.1414244	1.128757	-0.042024903	1.2510449	0.95805377	-0.57682717
1.0715363	-0.81612587	-0.957027	-1.2494949	0.90382105	-1.06505	-0.9415592	-1.2569859	0.020083856	1.2159348	1.4259874	-0.93933994	1.0512568	-0.46891916	1.2337681	-0.49403512
-0.4365418	0.3630804	0.32477024	0.09276717	0.10771106	0.14973938	0.117204875	0.052130368	-0.030013109	-0.22975492	-0.11241873	0.25275505	0.090588324	0.2752991	-0.07980044	0.12518547
-0.29447553	0.41942528	0.44899428	-0.25650844	-0.4008642	0.06491653	0.066327006	0.14347859	0.13984966	-0.09120506	-0.0014911602	0.37901658	0.28472218	0.28939784	-0.24834684	0.23221003
0.6569018	-0.37717837	-0.26879445	0.070159376	-0.37065023	-0.038718432	-0.08162668	0.16653991	0.0042427992	0.15482683	0.25501856	-0.27679443	-0.12175685	-0.44759297	0.21323933	-0.12811026
-0.16914102	-0.20355102	0.02545787	-0.2686989	-0.5970259	-0.46234566	-0.5158714	0.87221336	0.7450068	0.40604153	-0.6624084	0.24428089	0.23063116	0.1954893	-0.67303085	0.57942337
-0.30923778	0.34862012	0.25228503	-0.034388546	0.26749912	0.108291596	0.15716793	-0.22524928	-0.13146529	-0.095004044	0.039961185	0.14469656	0.10507664	0.17809632	0.056421146	0.018820286
-0.15654178	0.32227105	0.16249795	-0.8463626	-0.6756535	-0.41156393	-0.33956406	-0.09779959	0.8301669	0.31021965	-0.21176516	0.5366417	1.0655148	0.7467323	-0.4225442	0.6371965
-0.045463476	0.14431924	0.16307692	0.066966236	-0.053493015	0.16582666	0.082261175	0.15338086	-0.027894966	-0.14688684	-0.007226031	0.017422533	-0.047814306	-0.020474583	-0.007990591	0.02554735
0.7215914	0.055021636	0.33176622	0.6523596	-0.28608435	0.7535325	0.71639025	0.6395039	-0.59100634	-0.7634106	0.7007786	-0.3265895	-0.54622734	-0.62966585	0.48235178	-0.52873635
-0.1633919	-0.046598494	0.10419846	0.17020893	-0.23163088	-0.038645037	-0.10269633	0.79131246	0.20543328	-0.087001584	-0.4628576	0.05561573	-0.061166763	-0.010827819	-0.3396394	0.29983056
0.90062916	-0.33461037	-0.26740503	0.25409803	0.00543137	0.25094998	0.19578034	-0.22638276	-0.49985126	-0.056184478	0.86414826	-0.659049	-0.32763195	-0.66249704	0.73260003	-0.5173675
0.25412467	-0.25860855	-0.16009726	-0.051459838	0.014725473	-0.12244552	-0.14159572	0.28559473	0.12530743	0.12827551	-0.2329369	-0.23414068	-0.04433604	-0.11704381	-0.1846834	0.18848775
-0.027362341	0.33131367	0.26731887	-0.3386469	-0.7564025	-0.019977655	-0.054195866	0.16954312	0.31954363	0.036395587	-0.065657474	0.4216667	0.45710838	0.28341845	-0.21726224	0.26186746
0.13417736	0.3221561	0.40673643	0.28858894	-0.43984905	0.4767889	0.43190774	0.539846	-0.20622566	-0.4940003	0.15445352	0.103304	-0.12330978	-0.18061934	0.11258586	-0.1526493
0.07870151	0.026840862	0.2798294	0.45002624	-0.3469501	0.37513033	0.27260095	0.83922964	-0.16848652	-0.46934184	0.03608398	-0.027064169	-0.24272317	-0.22061235	0.023225596	-0.019864246
0.19854227	-0.08528862	-0.08952592	-0.21871735	-0.3170209	-0.1602635	-0.16697282	-0.046577606	0.12148336	0.23821108	0.16627292	0.11418542	0.18725021	0.0691215	-0.0033726501	0.0968676
-0.17198965	0.2361983	-0.011852191	-0.37323636	0.26291814	-0.09679022	-0.037801154	-0.63741344	-0.015014549	0.14930122	0.30107033	0.21541497	0.40869644	0.35730937	0.2168917	-0.048272103
-0.7343403	0.88870174	0.7676528	0.27531466	0.517099	0.7514502	0.7164747	-0.66841006	-0.7315066	-0.6664953	0.55784494	0.51441526	0.14437239	0.5645119	0.3851955	-0.410064
0.6678486	-0.17594177	-0.34239092	-0.69052345	0.09467001	-0.46296775	-0.46063566	-0.6462558	-0.0060316985	0.6040804	0.8110464	-0.25818527	0.69935846	-0.044893447	0.5321007	-0.1286687
0.20328248	-0.29737738	-0.22515684	0.10406133	0.4246172	-0.17094068	-0.20654976	0.14517081	-0.022386154	0.13957931	-0.048215784	-0.3694254	-0.37899774	-0.3639895	0.09158624	0.085948244
-0.484261	0.45379493	0.47426757	-0.2941375	-0.5147829	0.07960558	0.09745912	0.20303185	0.33513337	-0.12734315	-0.25969154	0.59306663	0.45706216	0.5646619	-0.41137272	0.35477832
-0.2753706	0.14652981	0.21434312	-0.08438848	-0.09172315	-0.055795565	-0.09649088	0.23559153	0.23159076	-0.0019216647	-0.33262235	0.23939228	0.16067787	0.25963762	-0.27281183	0.23499851
-0.22913209	0.0052717295	0.110827014	-0.1970072	-0.28697637	-0.17704582	-0.22524561	0.37241426	0.38359824	0.105578266	-0.38509685	0.18900485	0.17892376	0.21886797	-0.4250765	0.37485364
-0.9006012	1.0302969	0.85853744	0.40457276	1.154868	0.8871942	0.8387292	-1.0292207	-0.996862	-0.8081743	0.94943273	0.6256943	-0.036572725	0.6569661	0.8070934	-0.63272375
-0.36673787	0.3770753	0.3403282	-0.22068237	-0.5864063	-0.028483598	0.01620004	0.42685637	0.34570345	-0.11238523	-0.28377756	0.51860845	0.35745102	0.43106112	-0.33743453	0.30296883
0.98481834	-0.61814314	-0.7914679	-1.2267128	0.49660617	-1.0194039	-0.9394743	-1.1489817	0.4234899	1.0674738	1.2105179	-0.6286256	1.151928	-0.14399058	0.91422707	-0.054471344
-0.6921443	0.43765765	0.37682945	-0.8596985	-0.9727829	-0.76614827	-0.7409554	0.7106138	1.0103909	0.3311725	-0.8354171	0.68150866	0.7918615	0.7134705	-0.78018296	0.75839525
0.8699271	-0.9928941	-0.9752983	0.5288369	1.0670116	-0.74161446	-0.7224721	0.91192657	0.608047	0.59805757	-0.7279298	-1.0718645	-1.0282273	-1.0361959	-0.44621143	0.559374
0.43043035	-0.18023114	-0.18132366	-0.18052585	-0.15829764	-0.085464895	-0.032382894	-0.023861257	-0.008465423	0.1524274	0.30944082	-0.13588472	0.025261825	-0.15570176	0.107855	-0.08242864
0.5733661	0.2284601	0.4228313	0.6052399	-0.3859463	0.6623073	0.58874136	0.8158459	-0.5237239	-0.6996186	0.4996365	-0.22855212	-0.547033	-0.5410085	0.31597516	-0.4526008
0.38828433	-0.13979065	-0.294739	-0.8733529	-0.14775154	-0.5818733	-0.550057	-0.51270187	0.31569344	0.6828475	0.39795315	0.012665249	0.7123494	0.24841389	0.08478469	0.2184862
-0.095745265	-0.010509325	-0.021785242	-0.41805777	0.0434503	-0.25082645	-0.2843963	-0.009274309	0.3573489	0.24527372	-0.29747134	0.1277447	0.26807517	0.2573425	-0.30868366	0.29767165
-0.17331159	0.13988216	0.22822617	-0.008272759	-0.5650528	-0.04600975	-0.010831407	0.5882057	0.26815912	-0.005993618	-0.38298833	0.3602577	0.14732794	0.21533817	-0.4295552	0.3363011
-0.03369495	-0.1297786	-0.053134304	-0.24600615	-0.34843126	-0.31728497	-0.32303005	0.473111	0.4579644	0.25031814	-0.41459766	0.15073988	0.25849423	0.14342785	-0.41560677	0.4707285
-0.62781656	0.72818106	0.5246429	-0.16332902	0.7308687	0.38156223	0.3334153	-0.9151634	-0.45380384	-0.20154081	0.6239074	0.4668823	0.3982216	0.66488355	0.41372398	-0.13701534
0.088237986	0.4550836	0.6643564	0.90688413	0.652085	0.88590723	0.8541214	-0.10080435	-0.9840709	-0.85150087	0.86918	-0.32068524	-0.76695526	-0.5593886	0.8103177	-0.6996843
-0.23324418	0.36841676	0.30301437	-0.008281245	-0.52925813	0.15397696	0.12042287	0.17507876	0.20483333	-0.15934347	-0.107606865	0.41022247	0.27574325	0.32791373	-0.3179251	0.2185029
-0.8782281	0.59968257	0.5283988	-0.64643836	-0.85425574	-0.5005566	-0.60071164	0.7777039	0.82094103	0.09383167	-0.7389923	0.73300654	0.70362896	0.7011399	-0.69165534	0.6096435
0.21828891	-0.03396902	-0.27689838	-0.8724241	0.49888825	-0.31615373	-0.2899474	-1.0868778	-0.19160642	0.5410811	0.9596101	0.015184974	1.0079669	0.43046305	0.6523291	-0.18675345
0.2839799	-0.17238642	-0.2728642	-0.26762918	0.5515237	-0.13144319	-0.2168498	-0.35571948	-0.17428131	0.26912042	0.3650076	-0.32815877	0.04694995	-0.2088924	0.41908768	-0.1286521
-0.06905826	-0.042733543	0.08633893	0.37784603	-0.022591988	0.06968232	0.010046797	0.5796469	0.010797056	-0.18637437	-0.25123295	-0.0648183	-0.33749864	-0.23642044	-0.17838906	0.07645205
0.53346395	-0.31416732	-0.03382025	0.3995514	0.24159822	0.19003923	0.2053914	0.41035175	-0.28946528	-0.21883272	0.2093971	-0.49724814	-0.5207655	-0.6182167	0.3457182	-0.23144327
0.113119446	-0.14386708	-0.055000633	0.461541	0.38887608	0.069693945	0.05175999	0.4526775	-0.13732594	-0.13433896	-0.14239998	-0.40420088	-0.49322805	-0.36981288	0.06274968	-0.038485747
0.30480728	-0.12280803	0.028700849	0.24691133	-0.14255613	0.12515005	0.09792183	0.30305257	0.0032889547	-0.08646951	-0.0499827	-0.090432264	-0.22480357	-0.20962875	0.016830945	-0.004503985
-0.14710115	-0.16583906	-0.14644784	0.32393038	1.0365286	-0.013244567	-0.13477458	-0.023889186	-0.2092967	0.035737637	-0.19300516	-0.40933397	-0.53333527	-0.27818322	0.07414473	0.01984721
1.0555342	-0.690203	-0.7901087	-1.2144715	0.59739697	-1.0024742	-1.0052558	-1.0920174	0.19923137	1.0901287	1.261932	-0.8080833	1.0845572	-0.3907508	1.0426128	-0.2745737
0.33460224	-0.11457744	-0.046438396	-0.007949052	-0.663722	0.020923102	-0.024653789	0.3773125	0.090337165	-0.045631967	0.043051943	0.062432427	0.09785609	-0.14634706	-0.06251943	0.028120048
-1.2893691	1.3163908	1.3566821	0.07523117	1.198484	0.8685594	0.86371624	-1.3275506	-0.9685027	-0.9086745	0.63914	1.2771776	0.74737316	1.3301357	0.549134	-0.088924
0.103019126	-0.013621073	0.08804847	-0.12516129	-0.4973147	-0.09915824	-0.12195185	0.39274037	0.17239328	0.15886834	-0.07180716	0.20729424	0.123659596	0.009398159	-0.17979683	0.22847018
-0.036274116	-0.3527335	-0.11323522	0.2514925	0.07638281	-0.25783083	-0.29937518	0.7641263	0.35200277	0.14207898	-0.6432979	-0.2667875	-0.29371405	-0.17387445	-0.41232345	0.33144605
-0.25507814	0.25121891	0.27051565	-0.065216705	-0.48509032	0.050390705	0.031186512	0.3990578	0.1514865	-0.045337792	-0.16377409	0.37897167	0.17767914	0.24718036	-0.25363523	0.18476924
1.3256129	-0.2955148	0.26588118	1.0433023	0.3521068	0.9425103	0.86856246	0.933703	-0.92804885	-0.9304469	0.85135424	-1.1300944	-1.0651474	-1.1160748	0.78860074	-0.81473225
-0.2141848	0.222151	0.38492978	-0.13601655	-1.0974886	0.11173932	0.10720604	1.4810348	0.4072132	-0.22606428	-0.4310534	0.48664647	0.25813025	0.21699482	-0.44635156	0.3746049
-0.45750034	0.05617652	0.21413724	-0.63082486	-0.6711634	-0.5614355	-0.5213362	0.7315586	0.8226347	0.3415411	-0.800926	0.4399161	0.5323835	0.5290405	-0.8340489	0.69965726
-0.17739342	0.40970358	0.35757744	-0.21194859	-0.192043	0.18051125	0.13430011	-0.11682466	-0.029569697	-0.13019899	0.15713635	0.35568547	0.28032804	0.27210864	-0.019957023	0.033562347
0.07083464	0.04570433	0.083630554	-0.17111914	-0.4557724	0.010510968	-0.061571088	0.33799472	0.1771229	-0.0016733184	-0.063935585	0.19442508	0.23120461	0.05660007	-0.13937186	0.20586021
-0.16486384	-0.05186424	0.055978853	0.29904482	0.22327156	-0.03353773	-0.053948108	0.41526687	0.07963315	-0.10140997	-0.31031623	-0.09181348	-0.32969078	-0.11149925	-0.19840732	0.099649616
-0.038583577	0.008695536	-0.0030408937	0.0758129	0.10056368	-0.113533735	-0.16066149	0.09574812	0.07205245	0.08683375	-0.0716867	-0.07111035	-0.027405566	-0.050617557	-0.06431073	0.17887002
-0.17218179	0.012602044	0.079829894	0.08676651	0.3194547	-0.0429403	-0.02026799	-0.006385471	-0.067229085	0.03006024	-0.094737515	-0.017710397	-0.12766531	0.02991336	0.0026693498	0.045500636
0.12942202	0.108423404	-0.1848523	-0.7603248	-0.36137295	-0.50123495	-0.45874915	-0.3885339	0.46113145	0.59037524	0.071043395	0.35977903	0.68569076	0.46186587	-0.20999523	0.31323925
0.9092509	-0.4588368	-0.49426308	-0.4162588	0.03262186	-0.28988084	-0.24970762	-0.6133171	-0.121677	0.41329408	0.8163829	-0.4954254	0.262499	-0.25093672	0.582104	-0.28964144
0.66942406	-0.2319341	-0.1490645	0.24957885	0.35399875	0.20570818	0.09480854	-0.16589832	-0.47948658	-0.01923293	0.50662553	-0.5900312	-0.40397897	-0.65972435	0.47897446	-0.39811713
-0.5845892	0.23112974	0.24648562	-0.25460252	-0.16937764	-0.21177378	-0.18618159	0.26118746	0.39680445	0.08794183	-0.55539244	0.32319286	0.31755725	0.4565095	-0.48112568	0.43890128
-0.050486036	0.15366589	0.016838511	-0.5339844	-0.28442228	-0.21998169	-0.2151566	-0.14679582	0.30526945	0.23776731	-0.0032804876	0.3656506	0.5106191	0.3907676	-0.21363325	0.31426397
0.17888713	-0.14139362	-0.069025405	-0.062045626	-0.054093115	-0.059187993	-0.030489957	0.23241282	0.02965527	0.035090722	0.03554469	-0.028000686	0.0073978193	-0.09971614	-0.012955988	0.052506916
-0.66825944	0.6232313	0.6008386	-0.45951444	-1.167826	-0.19266762	-0.19877066	1.0599917	0.756793	-0.04833916	-0.7516541	0.845316	0.7340802	0.6708963	-0.7981836	0.68374157
-0.153522	-0.41802225	-0.33168268	0.23345794	0.4481826	-0.305823	-0.3915146	0.57681376	0.4049807	0.25498027	-0.6587913	-0.33221644	-0.4231329	-0.19030859	-0.46063182	0.43852395
0.21647385	-0.23801407	-0.13424364	0.3052928	0.3409276	-0.024836509	-0.098454855	0.31100813	-0.14266333	-0.0059470553	-0.06301575	-0.37739348	-0.4285587	-0.36815232	0.106873296	-0.018888948
0.1118491	-0.22560324	-0.18036506	-0.39452973	-0.21325268	-0.48188025	-0.44466445	0.20815116	0.3818607	0.44913718	-0.28247985	-0.024563504	0.29199007	0.09801442	-0.3233534	0.45443904
0.1380709	0.13585149	-0.060676817	-0.588276	-0.22657673	-0.2554321	-0.16687366	-0.51178044	0.08874246	0.30892122	0.38390326	0.23004122	0.5852466	0.34949318	0.09578704	0.09192836
0.3066434	-0.53725624	-0.34532326	0.046437792	-0.047315	-0.5290332	-0.514983	0.8029952	0.6015317	0.33801043	-0.77536786	-0.27891377	-0.25779155	-0.26287726	-0.5726733	0.5754054
-1.3206526	1.3682798	1.3767893	0.60281765	1.3867222	1.039729	0.95246565	-1.4488338	-1.1775101	-0.9773473	0.97033197	1.0453056	0.17678332	1.1164895	0.9061684	-0.36824363
-0.48312098	0.09554412	0.18718578	0.72416216	1.0920206	0.26297015	0.14124846	0.13207965	-0.32504058	-0.3392036	-0.25261167	-0.36870366	-0.77371424	-0.251195	0.10276941	0.0036580598
